784
16
9
3
784
0.680375
0
-0.211234
0
0.566198
0
0.596880
0
0.823295
0
-0.604897
0
-0.329554
0
0.536459
0
-0.444451
0
0.107940
0
-0.045206
0
0.257742
0
-0.270431
0
0.026802
0
0.904459
0
0.832390
0
0.271423
0
0.434594
0
-0.716795
0
0.213938
0
-0.967399
0
-0.514226
0
-0.725537
0
0.608354
0
-0.686642
0
-0.198111
0
-0.740419
0
-0.782382
0
0.997849
0
-0.563486
0
0.025865
0
0.678224
0
0.225280
0
-0.407937
0
0.275105
0
0.048574
0
-0.012834
0
0.945550
0
-0.414966
0
0.542715
0
0.053490
0
0.539828
0
-0.199543
0
0.783059
0
-0.433371
0
-0.295083
0
0.615449
0
0.838053
0
-0.860489
0
0.898654
0
0.051991
0
-0.827888
0
-0.615572
0
0.326454
0
0.780465
0
-0.302214
0
-0.871657
0
-0.959954
0
-0.084597
0
-0.873808
0
-0.523440
0
0.941268
0
0.804416
0
0.701840
0
-0.466669
0
0.079521
0
-0.249586
0
0.520497
0
0.025071
0
0.335448
0
0.063213
0
-0.921439
0
-0.124725
0
0.863670
0
0.861620
0
0.441905
0
-0.431413
0
0.477069
0
0.279958
0
-0.291903
0
0.375723
0
-0.668052
0
-0.119791
0
0.760150
0
0.658402
0
-0.339326
0
-0.542064
0
0.786745
0
-0.299280
0
0.373340
0
0.912937
0
0.177280
0
0.314608
0
0.717353
0
-0.120880
0
0.847940
0
-0.203127
0
0.629534
0
0.368437
0
0.821944
0
-0.035019
0
-0.568350
0
0.900505
0
0.840257
0
-0.704680
0
0.762124
0
0.282161
0
-0.136093
0
0.239193
0
-0.437881
0
0.572004
0
-0.385084
0
-0.105933
0
-0.547787
0
-0.624934
0
-0.447531
0
0.112888
0
-0.166997
0
-0.660786
0
0.813608
0
-0.793658
0
-0.747849
0
-0.009112
0
0.520950
0
0.969503
0
0.870008
0
0.368890
0
-0.233623
0
0.499542
0
-0.262673
0
-0.411679
0
-0.535477
0
0.168977
0
-0.511175
0
-0.695220
0
0.464297
0
-0.749050
0
0.586941
0
-0.671796
0
0.490143
0
-0.850940
0
0.900208
0
-0.894941
0
0.043127
0
-0.647579
0
-0.519875
0
0.595596
0
0.465309
0
0.313127
0
0.934810
0
0.278917
0
0.519470
0
-0.813039
0
-0.730195
0
0.040420
0
-0.843536
0
-0.860187
0
-0.590690
0
-0.077159
0
0.639355
0
0.146637
0
0.511162
0
-0.896122
0
-0.684386
0
0.999987
0
-0.591343
0
0.779911
0
-0.749063
0
0.995598
0
-0.891885
0
0.741080
0
-0.855342
0
-0.991677
0
0.846138
0
0.187784
0
-0.639255
0
-0.673737
0
-0.216620
0
0.826053
0
0.639390
0
-0.281809
0
0.104970
0
0.158860
0
-0.094848
0
0.374775
0
-0.800720
0
0.061616
0
0.514588
0
-0.391410
0
0.984457
0
0.153942
0
0.755228
0
0.495619
0
0.257820
0
-0.929158
0
0.495606
0
0.666477
0
0.850753
0
0.746543
0
0.662075
0
0.958868
0
0.487622
0
0.806733
0
0.967191
0
0.333761
0
-0.005483
0
-0.672064
0
0.660024
0
0.777898
0
-0.846011
0
0.299414
0
-0.503912
0
0.258959
0
-0.541726
0
0.401240
0
-0.366266
0
-0.342446
0
-0.537144
0
-0.851678
0
0.266144
0
-0.552687
0
0.302264
0
0.021372
0
0.942931
0
-0.439916
0
0.092214
0
0.438537
0
-0.773439
0
-0.057033
0
0.185080
0
0.888636
0
-0.098165
0
-0.327298
0
0.695369
0
-0.130973
0
-0.993537
0
-0.310114
0
0.196963
0
0.666487
0
-0.532217
0
0.350952
0
-0.034099
0
-0.036128
0
-0.390089
0
0.424175
0
-0.634888
0
0.243646
0
-0.918271
0
-0.172033
0
0.391968
0
0.347873
0
0.275280
0
-0.305768
0
-0.630755
0
0.218212
0
0.254316
0
0.461459
0
-0.343251
0
0.480877
0
-0.595574
0
0.841829
0
0.369513
0
0.306261
0
-0.485469
0
0.064882
0
-0.824713
0
-0.479006
0
0.754768
0
0.372250
0
-0.812520
0
-0.777449
0
-0.276798
0
0.153381
0
0.186423
0
0.333113
0
-0.422444
0
0.551534
0
-0.423241
0
-0.340716
0
-0.620498
0
0.968726
0
-0.992843
0
0.654782
0
-0.337042
0
-0.623598
0
-0.127006
0
0.917274
0
0.837861
0
0.529743
0
0.398151
0
-0.757714
0
0.371572
0
-0.232336
0
0.548547
0
0.886103
0
0.832546
0
0.723834
0
-0.592904
0
0.587314
0
0.096084
0
-0.405423
0
0.809865
0
0.819286
0
0.747958
0
-0.003712
0
0.152399
0
-0.674487
0
-0.452178
0
0.729158
0
-0.015202
0
-0.072676
0
0.697884
0
-0.008045
0
-0.417893
0
-0.639158
0
0.368357
0
0.455101
0
-0.721884
0
0.206218
0
-0.015157
0
0.676267
0
0.448504
0
-0.643585
0
-0.556069
0
-0.002949
0
-0.757482
0
-0.723523
0
-0.279115
0
-0.350386
0
0.863791
0
0.816969
0
0.244191
0
0.673656
0
0.636255
0
-0.007851
0
-0.330057
0
-0.211346
0
0.317662
0
0.217766
0
-0.482188
0
-0.697540
0
-0.854910
0
-0.784303
0
0.294415
0
-0.272803
0
-0.423461
0
-0.337228
0
-0.817703
0
-0.145345
0
0.868989
0
0.167141
0
-0.469077
0
0.317493
0
0.523556
0
-0.025146
0
-0.685456
0
0.766073
0
0.251331
0
0.035429
0
-0.584313
0
0.115121
0
-0.147601
0
0.659878
0
-0.211223
0
-0.511346
0
-0.347973
0
0.458720
0
0.277308
0
0.969689
0
-0.323514
0
0.795121
0
-0.727851
0
-0.178424
0
-0.989183
0
0.566564
0
0.548772
0
-0.412644
0
-0.770664
0
0.731070
0
0.442012
0
-0.901675
0
-0.101790
0
0.972934
0
0.415818
0
-0.578234
0
-0.052212
0
0.730362
0
-0.812161
0
-0.800881
0
-0.234208
0
-0.396474
0
0.314240
0
0.618191
0
-0.736596
0
-0.896983
0
-0.893155
0
-0.084569
0
0.561737
0
0.384153
0
-0.114880
0
-0.761777
0
0.179273
0
0.157270
0
0.059798
0
0.190091
0
-0.276166
0
-0.391429
0
0.777447
0
-0.046831
0
-0.660359
0
0.219458
0
0.051494
0
0.237851
0
0.192392
0
-0.532688
0
0.659617
0
-0.859820
0
-0.802325
0
0.847456
0
-0.660701
0
-0.036533
0
-0.549018
0
0.653539
0
-0.418343
0
-0.285614
0
0.756555
0
-0.311498
0
0.629817
0
0.318292
0
-0.927345
0
-0.485062
0
0.556515
0
0.251928
0
0.672207
0
-0.383687
0
-0.557981
0
-0.603959
0
0.224884
0
-0.780535
0
0.349210
0
0.564525
0
0.438924
0
-0.599295
0
-0.197625
0
-0.368684
0
-0.131983
0
-0.538008
0
-0.228504
0
0.065692
0
-0.690552
0
0.110795
0
-0.970841
0
-0.239571
0
-0.235666
0
-0.389184
0
0.474815
0
-0.479110
0
0.299318
0
0.104633
0
0.839182
0
0.371973
0
0.619571
0
0.395696
0
-0.376099
0
0.291778
0
-0.987990
0
0.065920
0
0.687819
0
0.236894
0
0.285385
0
0.037030
0
-0.198582
0
-0.275691
0
0.437734
0
0.603793
0
0.355625
0
-0.694248
0
-0.934215
0
-0.872879
0
0.371444
0
-0.624767
0
0.237917
0
0.400602
0
0.135662
0
-0.997749
0
-0.988582
0
-0.389522
0
-0.476859
0
0.310736
0
0.715110
0
-0.637678
0
-0.317291
0
0.334681
0
0.758019
0
0.306610
0
-0.373541
0
0.770028
0
-0.627470
0
-0.685722
0
0.006922
0
0.657915
0
0.351308
0
0.808340
0
-0.617777
0
-0.210957
0
0.412133
0
0.737848
0
0.094794
0
0.477919
0
0.864969
0
-0.533762
0
0.853152
0
0.102886
0
0.866840
0
-0.011186
0
0.105137
0
0.878258
0
0.599291
0
0.628277
0
0.188995
0
0.314402
0
0.990600
0
0.871703
0
-0.350917
0
0.748619
0
0.178313
0
0.275542
0
0.518647
0
0.550843
0
0.589820
0
-0.474431
0
0.208758
0
-0.058872
0
-0.666091
0
0.590981
0
0.730171
0
0.746043
0
0.328829
0
-0.175035
0
0.223961
0
0.193798
0
0.291203
0
0.077113
0
-0.703316
0
0.158043
0
-0.934073
0
0.401821
0
0.036301
0
0.665218
0
0.030098
0
-0.774704
0
-0.020380
0
0.020698
0
-0.903001
0
0.628703
0
-0.230683
0
0.275313
0
-0.095755
0
-0.712036
0
-0.173844
0
-0.505935
0
-0.186467
0
-0.965087
0
0.435193
0
0.147442
0
0.625894
0
0.165365
0
-0.106515
0
-0.045277
0
0.990330
0
-0.882554
0
-0.851479
0
0.281533
0
0.194560
0
-0.554795
0
-0.560424
0
0.260486
0
0.847025
0
0.475877
0
-0.074296
0
-0.122876
0
0.701173
0
0.905325
0
0.897822
0
0.798172
0
0.534027
0
-0.332862
0
0.073485
0
-0.561728
0
-0.044898
0
0.899641
0
-0.067663
0
0.768636
0
0.934554
0
-0.632469
0
-0.083922
0
0.560448
0
0.532895
0
0.809563
0
-0.484829
0
0.523225
0
0.927010
0
-0.336308
0
-0.195242
0
0.121569
0
0.108896
0
0.244333
0
-0.617945
0
-0.044078
0
-0.279790
0
0.307760
0
0.833045
0
-0.578617
0
0.213084
0
0.730867
0
-0.780445
0
-0.252888
0
-0.601995
0
0.293040
0
0.185384
0
0.353108
0
0.192681
0
-0.882279
0
0.121744
0
0.127235
0
-0.514748
0
-0.962178
0
-0.312317
0
-0.981853
0
0.847385
0
0.202853
0
0.541372
0
0.774394
0
0.866545
0
-0.653871
0
-0.104037
0
-0.024559
0
0.590463
0
0.278018
0
0.931363
0
-0.689327
0
-0.414222
0
0.764409
0
-0.267944
0
0.798863
0
0.495276
0
-0.048389
0
-0.454026
0
0.893281
0
-0.755348
0
0.731358
0
0.246389
0
0.437333
0
0.849079
0
-0.631868
0
-0.435432
0
-0.665669
0
-0.594046
0
0.252250
0
-0.647522
0
-0.746662
0
-0.544896
0
0.893849
0
-0.972267
0
-0.678351
0
-0.760021
0
-0.076304
0
0.297090
0
0.830441
0
-0.798286
0
0.228453
0
-0.858886
0
-0.212508
0
-0.007138
0
-0.126830
0
-0.413645
0
-0.511863
0
0.824781
0
0.132329
0
-0.618582
0
-0.930567
0
-0.136313
0
0.627807
0
0.506765
0
-0.287234
0
0.995940
0
-0.928667
0
0.047097
0
-0.598106
0
0.323583
0
0.399574
0
-0.344768
0
0.778687
0
0.293424
0
-0.317035
0
-0.899664
0
0.533402
0
0.606660
0
0.397426
0
0.363843
0
0.808374
0
-0.374121
0
0.504957
0
-0.404134
0
0.618741
0
-0.621873
0
0.182221
0
-0.893121
0
-0.797092
0
-0.685450
0
-0.511703
0
-0.727659
0
0.178237
0
-0.883895
0
0.779106
0
0.891003
0
-0.887956
0
0.850439
0
-0.061900
0
-0.486062
0
0.174022
0
-0.662326
0
0.169170
0
-0.047291
0
0.631098
0
0.852135
0
0.053045
0
0.164500
0
0.458795
0
-0.549529
0
-0.471656
0
0.267170
0
0.076351
0
-0.966699
0
0.863036
0
-0.304908
0
-0.588572
0
0.045257
0
-0.198029
0
-0.385663
0
0.359808
0
0.290268
0
-0.113322
0
-0.461955
0
0.406372
0
-0.334216
0
-0.570952
0
0.518417
0
-0.483777
0
0.367148
0
-0.967645
0
0.690246
0
0.704822
0
0.201525
0
-0.357045
0
0.335920
0
0.053660
0
0.696000
0
-0.499579
0
-0.487544
0
-0.853529
0
0.028764
0
0.779625
0
0.222822
0
0.062066
0
0.642662
0
0.917914
0
0.473494
0
-0.312081
0
-0.280116
0
-0.912169
0
-0.952274
0
-0.989848
0
-0.025492
0
-0.414229
0
0.416525
0
0.640292
0
0.014819
0
-0.065058
0
-0.843484
0
-0.618033
0
-0.032703
0
0.846762
0
-0.913211
0
16
-4.815429
784
-0.831178
-0.510283
0.422710
0.222482
-0.814283
0.923130
0.734938
-0.667812
-0.048105
0.514564
0.555010
-0.986040
0.157225
0.472924
0.487454
0.845144
-0.807192
0.575285
0.892870
-0.797039
-0.450207
-0.521358
0.619486
-0.809915
0.493461
-0.445573
-0.653399
0.875428
0.521724
-0.806637
0.962217
0.690546
-0.316921
0.384927
-0.086972
-0.131204
0.308057
-0.352034
0.200984
-0.740048
-0.837470
-0.244006
-0.726088
0.319755
-0.771082
0.761366
0.164899
-0.578274
0.336651
0.057770
-0.375313
0.886444
0.536411
-0.755828
-0.923470
0.029872
-0.201400
-0.576869
-0.094700
-0.679676
-0.383506
-0.132483
-0.989130
0.299573
-0.747556
-0.076102
-0.831631
0.560501
0.571865
-0.210262
0.240317
0.734396
-0.877081
-0.908066
0.054150
-0.645734
0.855732
-0.780951
-0.224008
0.192383
0.276819
0.400679
0.078827
-0.186770
0.644852
0.155357
0.843102
-0.556548
0.578487
-0.251598
-0.236225
-0.570764
0.739797
-0.095533
0.221357
0.529464
1.745806
1.840550
1.557168
2.002395
1.156304
0.661768
-0.417092
-0.444727
0.336918
-0.941080
0.511891
0.199413
-0.721998
-0.712117
-0.608204
0.554820
0.688562
0.470623
-0.631949
0.333414
-0.374021
-0.788847
0.792316
-0.730812
0.256231
0.288503
-0.040842
-0.787955
0.160759
-1.803501
-3.073297
-0.195230
2.174057
2.158317
-1.047859
-0.253201
0.200971
-0.103726
0.813546
-0.664585
0.347992
0.258719
0.665109
0.625994
0.546602
-0.943095
0.180814
0.235164
0.533471
0.538393
-0.625734
-0.436858
0.802319
-0.073233
-0.081943
-0.066163
-1.237107
-1.539551
-1.481334
-1.960403
-0.807314
0.073142
0.764789
0.217106
1.102682
0.487904
-0.293436
-0.384232
-0.369214
-0.549419
0.199289
-0.863530
0.803097
-0.135602
0.762463
0.349699
-0.072753
-0.082456
-0.670083
-0.416406
-0.910148
0.034442
0.206678
-0.470179
-0.570310
-1.032196
0.690282
-0.961052
0.024691
0.059689
0.296668
0.081008
-1.070132
1.324400
-1.243458
0.573912
0.207183
0.203466
-0.649174
-0.910541
0.919433
0.550162
-0.777669
0.482843
-1.003393
0.776713
0.089949
0.228217
-0.314277
-0.301374
1.255246
0.820401
-1.297375
-0.548475
0.380331
-1.169592
-0.405541
-1.411785
-0.773526
1.140038
2.236401
1.237040
0.257025
0.257670
0.450709
-0.843944
-0.483624
-0.616739
0.386741
-0.111758
-0.530878
0.070083
-0.739911
-0.173684
0.508064
0.462535
-0.037101
-1.219435
0.219822
-0.126507
0.070708
-0.186179
0.290482
-1.159121
-0.996077
0.035101
0.955583
1.709706
1.123833
0.909421
-0.148742
-0.295423
-0.183872
-0.627858
0.179818
0.935388
-0.781533
0.674681
-0.748494
0.305572
-0.613146
0.036789
0.051907
0.610606
0.903122
1.660523
2.052834
0.269499
-0.494567
-0.779702
0.725833
-0.080328
-1.314353
-1.213493
-0.713664
-0.604674
1.496656
-1.348414
-1.304206
0.464311
-0.043980
-0.055728
0.182661
0.671065
0.126653
-0.659033
0.606453
0.109030
-1.035672
0.956780
-0.066024
0.203822
-0.578847
0.527537
0.660261
-0.491578
0.637579
1.463599
0.071341
-0.349993
1.646357
-0.812846
1.086513
0.912423
-0.438839
-1.560743
-1.160726
0.109449
0.194375
-0.310866
0.476364
-0.927008
0.443645
-0.362487
0.744057
-0.665792
-0.102278
0.007980
1.368151
0.001307
0.166904
-0.137164
0.183561
-0.271627
-1.319439
0.177960
-2.582492
-2.413328
0.278525
0.000157
-0.615024
0.487547
-0.356113
-1.054901
0.083733
1.346320
-0.089481
0.938050
-0.646599
0.278397
-0.703539
0.787259
0.351389
0.504015
-0.655982
-0.144892
-1.454542
0.296889
-0.257530
-1.413027
0.817443
0.955933
-0.665725
-0.799635
-0.936691
-0.068754
-2.147190
1.183733
-0.062057
-0.394549
-1.334192
-0.048243
0.613450
0.877644
0.662937
0.396344
0.034781
-0.242402
0.003671
0.388229
-0.964005
0.064041
0.060628
-0.038423
-0.954758
0.506482
-1.050995
-0.758362
0.446226
0.647003
0.974763
0.025511
0.716083
-0.665233
2.291801
1.560621
-0.134516
-1.424275
-0.659345
-0.455101
-0.532342
0.353701
1.273994
-0.575311
-0.973677
-0.710108
0.490309
0.061151
0.047538
-0.742063
-1.019234
-0.525105
-0.318446
0.568496
-0.553439
-1.105271
-0.229714
-0.929681
-0.677098
1.139946
0.859080
0.104944
1.786795
-0.510499
-1.077073
-0.503401
0.151496
-0.701127
0.014275
0.372944
1.367724
0.174067
0.943636
0.307519
0.289024
0.969959
0.597412
-0.220667
0.046876
-0.598058
-0.165991
1.205698
0.820583
-0.596091
-0.239256
-0.213545
0.740781
0.931573
1.204178
0.144695
-0.223539
-0.556179
1.066007
-0.385217
-0.269099
-1.332050
-0.136826
-0.628893
0.081985
-0.839871
0.617211
-0.053909
0.045458
0.581840
-0.746390
-0.662736
0.554581
0.560856
-0.588252
0.118145
0.343472
0.271825
-0.499109
-0.755779
1.144533
1.057324
-0.700386
-0.144703
0.228567
-0.204434
0.479504
-0.013586
-1.432758
-0.597653
-1.438076
-0.894317
0.588165
0.884245
-0.375603
-0.236795
0.734643
-0.716407
0.709296
-0.219899
0.678178
0.848372
-0.070859
0.436208
0.622403
1.097246
-1.530869
-1.984893
-0.303729
-1.490122
-1.471633
-0.659921
0.954993
-0.513015
0.500772
-0.653609
-0.701898
-0.281278
-0.796268
0.140205
-0.759459
0.101731
0.305511
0.729746
-0.344748
0.971893
-0.507049
-0.610105
-0.996810
-0.699200
-0.167449
-0.843071
-1.078695
-0.711500
0.076194
-0.020933
-1.445029
-0.505676
-1.170427
-0.070586
0.729138
-0.796645
-0.511261
0.273294
0.340594
-0.526383
-1.473674
-0.669660
0.549467
-0.135513
0.440360
0.655229
0.635494
-0.212144
0.381378
-0.945344
-0.433815
1.361515
-0.429200
0.567778
-0.458899
0.670047
1.358591
-1.293542
-0.903209
-0.990843
-1.412365
-0.149595
-1.322151
-0.829525
-0.059828
2.770351
0.463364
0.121240
-0.373656
0.471919
0.613703
-0.052862
0.411406
0.094720
0.480901
-0.106248
-0.253648
-0.031428
0.508907
-1.108791
1.443026
1.004746
-0.805094
0.063467
1.365522
-1.900021
-0.120037
-0.880073
-1.300360
-1.427311
-0.202087
0.896772
-1.451801
0.429870
-0.602928
0.099476
0.289177
0.077608
0.562208
-0.830220
0.508857
0.074060
-0.213805
-0.037752
-0.834817
-0.929383
1.868287
0.490990
0.665915
2.072078
0.725665
0.955049
1.019752
-0.103526
0.340296
0.290959
0.560501
0.259565
-0.367340
0.627538
-1.009432
-0.060424
-1.453349
1.151841
0.223098
0.747088
-0.868624
-0.787017
0.528326
0.584623
-0.926968
0.079168
-0.344914
0.460764
-0.636702
-0.627561
-0.750981
0.627691
2.565658
0.134041
2.043218
-0.732195
1.118091
0.957730
1.823334
1.369834
0.766622
0.414146
0.201251
0.538786
0.652735
1.623195
-0.486632
0.010142
0.498022
0.092494
0.700181
0.609281
0.016739
0.270492
0.193904
0.089771
-0.727672
0.998169
0.844824
-1.153925
-1.386760
-0.319901
-0.447441
-1.868769
-0.613878
-0.565077
0.978071
-0.204398
0.539959
-0.182054
0.098105
0.909724
-0.880785
-0.701974
-0.135080
-0.357907
0.946293
0.038096
0.226508
0.444753
0.986221
-0.052318
0.054035
0.002960
-0.781826
-0.768476
-0.982261
-0.987117
-1.464636
-1.398813
-0.697362
-0.127031
-0.271530
-0.056836
1.180940
0.493593
0.532306
-0.476439
0.346769
-0.971532
0.508942
-0.364222
-0.904516
0.643684
-0.287676
-0.039613
-0.714222
-0.341383
0.998482
0.512286
-0.896630
0.984703
-0.540032
0.157405
-0.204772
-0.437556
0.367566
0.043895
0.252216
0.599294
-0.120095
-1.267379
-0.717674
-0.913241
0.197039
0.413370
-0.131780
-0.640337
0.926184
-0.470895
-0.468363
0.451542
0.181299
-0.372880
0.095226
0.893623
0.587507
0.381003
-0.447760
0.585989
-0.106711
-0.344390
0.570031
0.352528
0.793175
-0.459352
-1.136791
0.207268
0.517713
0.225664
-0.277686
-0.294108
0.427293
0.010678
0.000037
-0.065452
-0.496052
0.941385
0.357757
-0.569868
-0.529510
0.889394
0.881674
0.651789
-0.483486
-0.023100
0.545412
-0.895979
-0.642097
-0.902348
0.690010
0.251193
-0.246739
0.260702
-0.401133
-0.492521
0.690226
-0.409382
0.784636
0.457805
0.913222
-0.491135
-0.781326
0.395482
0.519543
0.218712
-0.669970
-0.976509
0.160097
0.687787
-0.546377
0.630587
-21.240608
784
-0.664703
0.282376
-0.906305
0.312197
-0.172212
-0.802285
0.670100
-0.074560
0.887725
-0.078707
0.678701
0.148427
0.525743
-0.755022
-0.032515
-0.838409
-0.970386
-0.574710
-0.925187
-0.461521
-0.356036
0.470295
-0.941979
0.862676
0.800325
-0.918488
0.022773
0.488112
-0.464865
-0.346640
0.065293
-0.129568
0.935736
0.158988
-0.817372
-0.236476
0.356703
0.852729
0.688964
0.244428
-0.225978
0.367666
-0.607145
-0.700236
0.612644
0.360340
-0.538645
0.642258
0.785630
-0.463833
-0.819264
-0.570405
-0.993538
-0.761242
-0.707729
0.806787
-0.679731
0.315043
0.294899
-0.144596
0.968403
-0.639807
0.725836
0.904139
0.519180
0.908464
-0.332336
0.635351
1.350004
0.389914
0.153598
0.579552
1.002755
-0.427553
-0.165021
0.336937
0.873507
0.295982
-0.020805
0.659137
0.832501
0.159931
-0.911268
0.838963
0.398688
-0.618997
0.645750
0.718958
0.696046
-0.059350
-0.425638
0.664450
0.296881
-0.663441
1.418608
1.164441
1.405537
1.197195
2.170661
1.672567
0.397517
0.134722
-1.520485
-1.071347
-0.648169
0.359989
0.654111
-0.797109
-0.363618
-0.366694
0.862028
-0.531117
0.793237
0.950761
-0.692154
0.191925
-0.668236
0.850273
-0.146882
-0.338659
-0.998426
-0.095367
1.137366
0.056065
2.867919
0.979834
2.633754
4.229462
-0.145797
-1.015611
-0.708263
-0.967832
-1.736647
-0.986749
-0.429124
-0.160999
0.809077
-0.938733
0.059508
-0.554541
-0.305427
-0.078463
-0.085659
-0.512190
-0.404989
-0.198772
-0.586651
0.256096
-0.963346
1.538212
-0.806468
1.213199
0.149254
1.962774
3.509416
1.296143
0.544285
-1.177956
-0.908195
0.306799
0.507153
-0.270095
-1.489011
-0.325372
-0.501448
-0.824573
0.375091
-0.902523
-0.759515
-0.565401
-0.457064
-0.064941
-0.280161
-0.694198
-0.173497
-1.851279
-2.149439
1.873271
-1.374281
-0.485402
2.003797
-2.408030
0.216049
2.371880
1.719253
1.275816
-1.904933
-0.414798
-1.583689
-0.375702
-0.927587
-0.969765
-1.096296
0.189147
0.980329
0.593576
0.406832
0.355420
0.691053
0.647318
0.454013
-0.817168
-0.870833
0.217073
0.549698
1.082618
0.490796
-1.258196
-0.206782
-0.463028
-1.902694
-1.000973
2.220742
-0.127241
-1.243129
1.954337
-0.652879
-1.672806
-2.379227
-0.376846
-0.857971
-0.711035
0.274108
-0.008466
0.525682
0.263540
-0.405787
-0.067486
-0.401874
0.282853
-0.740085
0.192955
-0.053620
1.156846
1.619662
-0.662375
-1.661401
-0.868364
-0.706748
-2.177676
-1.394375
2.800007
2.086082
3.464605
-0.497537
-0.237979
0.088854
-1.000314
0.737599
0.080156
0.103266
0.524343
0.390564
-0.622626
-0.484123
-0.101959
0.360132
1.878571
-0.105328
-0.433730
1.379229
-0.235485
0.613942
-0.685109
-0.915932
-2.402801
-3.331232
0.225776
0.652471
0.130218
-1.210348
0.615209
1.650608
-0.273672
-0.453999
-1.372326
0.626443
-0.713551
0.699384
0.512528
0.395724
-0.197350
0.036871
-0.231917
-0.106862
0.195908
1.737377
-0.277420
1.189805
-1.346731
-1.558712
-0.319611
-0.323629
-1.572651
-0.452469
-0.850294
1.196865
0.205821
0.141154
0.951768
-0.064652
2.256247
1.636656
-1.949714
0.079898
0.861750
-0.464843
-0.189823
-0.835023
-0.765459
-0.677294
0.542495
-0.251504
-0.823174
-2.532333
-2.506630
0.170234
0.375837
-0.523325
0.718147
-0.865097
-2.439419
-2.668512
-1.956783
0.603933
3.336728
0.530646
1.305862
2.921764
2.069504
0.741186
-1.898301
0.869642
-0.522253
-0.683368
0.131917
-0.660504
-0.148212
0.942095
-0.504629
0.081042
-1.550670
-3.153995
-1.916569
-1.550458
-2.547753
-5.282089
-1.689414
-3.065109
-2.687611
-1.858048
-0.305268
-0.231586
3.129596
2.392535
1.985369
3.146665
2.422200
0.194889
-1.344232
-0.326397
0.541194
-0.073244
-0.203421
-0.981060
0.243388
0.928497
-0.641563
-1.286221
-0.498691
-3.127887
-1.492259
-2.914997
-2.379402
-3.470964
-1.485472
-3.221424
-0.613833
-3.550335
-0.176789
-0.894483
1.755335
1.065476
-0.113307
0.850652
0.945903
-0.499688
-0.989204
-0.748496
-0.412018
-0.949290
0.190969
-0.870825
-0.022534
0.987548
-0.851885
-1.225837
-0.451151
-3.289403
-1.358122
-1.202231
-2.289346
-2.251788
0.536880
-1.807192
-1.356979
-1.191056
0.390723
-1.553963
0.050638
-1.250009
0.773124
0.854818
-0.173233
0.045052
-2.083146
-0.368353
0.629589
0.790249
0.290906
-0.782430
0.840959
-0.518125
-0.653254
-0.628345
-1.813999
-2.639462
-0.708048
-2.428797
-0.150153
-0.808667
-1.839513
-1.095562
-2.422502
-0.715228
-1.705618
-1.025466
-1.909325
-3.810784
-3.440305
0.962570
1.039224
-1.263453
-2.431874
0.280344
0.499375
-0.391849
-0.524308
0.128968
-0.601600
0.766598
0.346539
-1.209582
-1.716353
-0.189665
-0.596779
-2.361786
-0.461214
0.485985
0.195376
0.125416
-1.394587
-1.816870
-2.498821
-2.289451
-0.274679
-6.424484
-3.224708
-3.137438
-0.866088
-2.100478
-1.328020
0.275637
0.631979
0.031425
0.009912
0.131362
0.639576
0.485604
-0.739670
-1.117265
0.317279
-0.597578
-1.092850
-1.498735
1.335014
-1.040502
0.983475
2.116854
0.762524
-1.677875
-4.270394
-1.886815
-2.721353
-3.741295
-1.431672
-1.297009
0.049419
-0.638993
-0.834030
-0.401327
0.214770
-0.987756
-0.900134
-0.153244
0.043669
0.109778
0.977964
-0.129506
0.613391
-0.849428
1.506777
0.468689
1.814639
1.063670
0.651555
3.812866
1.364060
-1.272148
-2.139682
-1.503710
-2.904636
-1.236259
0.278032
0.135179
1.551306
1.031397
0.959466
0.964973
0.257652
-0.167268
-0.399451
-0.794634
-0.422087
-0.299585
0.051969
1.310989
2.218800
1.639277
0.942891
0.273478
2.656525
3.768355
3.291644
4.049538
1.879087
0.935104
-1.251469
-1.971341
-1.426816
-0.359415
-0.052979
0.107518
0.343699
0.486855
2.119418
1.417066
-0.118208
-0.003695
0.680819
0.605326
0.561974
-0.718632
1.021489
-0.015612
2.618108
2.160248
2.293155
0.926750
0.620016
0.652867
2.647136
4.729212
2.540131
2.515085
0.870682
1.288038
-1.085089
0.937425
-0.085905
-1.056788
-0.543275
2.271839
0.354857
0.564754
-0.626099
0.820523
0.379017
-0.011366
-0.183172
0.059836
-0.266891
-0.304411
2.063837
2.676543
0.095538
0.120543
0.387545
0.341575
0.519051
0.081491
1.192617
2.212431
2.139659
0.540659
2.504707
-0.407605
-0.130086
-0.033917
0.226681
-0.812020
0.320645
-0.662959
0.630325
0.313079
-0.804963
-0.995774
0.133602
0.574054
0.005265
1.375453
1.862831
2.217926
-0.102698
0.788686
-0.092043
0.923481
0.829123
1.135309
1.793568
1.908141
1.652369
3.065055
0.735926
0.680382
1.716665
-0.365831
-0.444381
0.678742
-0.971609
-0.727881
0.500054
0.339837
0.034681
0.130379
-0.347084
0.229718
0.130390
0.572556
0.684096
0.593937
0.791053
1.140778
2.635815
0.279831
1.496455
0.610141
-0.434203
2.858713
1.500191
4.910868
3.291185
2.696743
-1.403171
0.015811
-0.852050
0.173339
-0.579409
0.477458
0.899152
-0.357657
0.938616
0.399206
0.982180
-0.026703
-0.470415
-0.289771
-0.365839
0.356336
-1.139729
-0.862273
-1.067964
-3.202775
-2.435634
1.372095
-0.083267
2.590750
2.366102
3.346905
2.297679
0.757438
0.971235
1.589231
1.265417
0.045762
0.541365
0.686459
0.127830
0.879583
0.152096
0.026982
-0.478074
0.090711
-0.573812
-0.495895
-0.936661
-0.207290
-0.229123
-1.253126
-1.184231
-0.874874
-0.391567
-1.987454
-0.604857
-0.269815
0.575104
0.978423
0.562860
0.037317
0.004294
0.139060
0.301213
-0.736000
0.835434
-0.133772
-0.038238
0.376799
-0.447313
-0.910408
0.256382
0.704783
0.116574
0.778308
-0.204506
0.540502
-0.725380
-0.148880
-0.510265
0.410660
0.116762
0.112871
-0.108923
-0.603277
0.522486
-0.298198
-0.884191
0.447676
-0.354081
0.694061
-0.423063
0.728884
-0.162430
0.882599
0.992883
-0.326995
-0.251174
-0.045355
-0.950196
0.301513
0.044237
0.306185
0.006296
-0.839810
0.084309
0.801417
0.702391
0.362756
-0.342073
-0.797952
-0.211548
0.788439
0.320605
0.770948
-0.811845
-0.149279
-0.527250
-0.693250
-0.701603
0.118669
-0.999189
-0.124666
-0.152447
-0.161619
-0.242068
-2.705785
784
0.511386
0.506758
0.795082
0.561190
-0.191728
-0.160681
-0.132625
0.814568
0.000130
0.951868
0.616358
-0.296297
0.318774
-0.722349
-0.094190
-0.892705
-0.934530
-0.773585
0.878242
-0.746375
0.077136
-0.649008
-0.439625
0.375533
0.469662
-0.438814
-0.749134
-0.682785
0.399568
0.008799
0.157651
-0.089047
-0.484443
-0.047267
-0.527857
0.323828
0.792052
0.339518
0.138396
-0.207818
0.291386
-0.245246
0.495884
-0.389840
0.032406
-0.598306
-0.282545
0.097876
-0.371891
-0.404303
0.351501
0.705244
-0.053311
0.911876
0.080777
-0.583649
-0.526938
0.331644
-0.266434
0.872630
-0.659558
0.891216
-0.216417
-0.144001
-0.156051
0.255726
-0.820173
-0.363999
-0.404756
0.330091
0.461209
0.934854
-0.881930
-0.038133
-0.503210
0.105384
0.325761
0.213765
-0.796740
0.953869
0.809942
0.554760
0.659114
-0.243369
0.466636
-0.260109
0.172982
0.939698
-0.928465
0.906548
0.812328
-0.535466
0.258365
-2.111839
0.092526
-1.356364
0.428719
-0.848809
-0.928737
0.803829
-0.534886
-0.381537
0.138153
-0.023252
1.031611
-0.199114
0.927813
-0.044276
-0.955454
-0.857020
-0.090406
0.854488
0.702408
-0.431292
-0.388881
0.169044
0.308599
0.840867
0.539047
0.367434
0.154324
0.723561
3.587202
1.836292
1.761902
2.426305
-1.325284
-0.723284
2.130751
2.759385
-0.477614
-1.631148
0.458125
0.681874
-1.223877
0.457420
-0.020688
-0.942690
-0.300574
0.023858
-0.795043
0.609020
-0.121655
0.907196
-1.057250
0.878471
2.032269
1.042973
2.264507
2.666197
3.425572
-0.289093
1.056230
2.861516
-0.251355
1.428773
-1.177374
-0.014199
0.539588
-0.962826
-1.088172
-0.279871
2.279964
-0.714734
1.431302
0.618630
0.848036
-0.064354
0.670696
-0.452538
0.959504
0.875483
-0.900191
1.002481
2.000237
-0.670856
0.580945
2.472588
0.981272
1.785389
1.618698
1.251811
2.785848
-1.141646
1.327299
-0.018990
0.007306
0.369608
-2.685535
-1.585571
-2.436399
0.827157
0.059202
-0.209119
0.695410
-0.470511
-0.726705
0.521139
0.815406
-0.740773
-0.231815
1.633010
1.030817
1.061113
-0.945229
0.635897
1.493431
0.481546
0.279847
-0.627706
0.407483
1.423509
-1.264798
-1.091692
1.306800
-1.703831
-1.258149
-0.772549
-1.703456
-0.716304
0.304668
-0.207475
-0.034949
0.901787
0.023747
-0.787691
-0.644298
-0.011790
-1.359293
-0.489475
-0.513971
-0.431465
0.034944
0.710883
0.966786
1.054921
0.981043
-3.548699
0.549961
1.953757
-1.021070
1.511292
-1.001279
1.041310
-0.458729
0.686447
-0.479055
-0.820546
-0.680259
-0.448487
-0.732726
0.657442
-0.218816
-0.143551
0.555930
-1.005781
0.364935
0.012763
-0.385129
0.969193
-0.774565
0.747842
-1.386505
-0.566558
1.442852
-0.112965
1.955842
-0.373417
-1.291479
-1.779054
-1.236357
0.403046
0.791699
0.928880
0.343711
-0.809358
-0.185442
0.252323
0.341975
0.134538
0.239773
0.233373
-0.208020
-0.030376
-0.213182
-0.806407
-0.672082
-0.298350
0.782876
-0.533465
-1.189704
-4.089030
-0.630931
0.832283
0.676158
-1.024627
1.388559
0.303069
0.705979
-0.129841
2.180477
2.111278
0.981685
-0.436308
0.673796
0.998591
-0.029487
-0.466240
-0.313149
-1.063388
0.668298
-0.125434
0.882525
-0.626335
-0.855257
-0.349641
1.302336
-0.454589
-2.317546
-4.066136
-0.350159
-0.384495
-1.838392
0.096729
2.985449
0.593948
-1.733802
-1.179748
1.784599
3.206875
1.026070
-0.164822
-0.630949
0.721411
-0.238660
-0.940100
0.582994
0.355977
-0.406339
-0.208058
-1.308252
-1.100784
0.942240
-1.679844
-2.253010
-2.003983
-1.869735
-2.307275
1.571334
0.464156
1.246076
1.403799
-0.473635
-0.089056
-0.703890
-0.707645
0.283175
1.284192
1.458604
0.728601
0.015666
0.738797
-0.826760
-0.294987
0.323199
-0.087727
-0.235087
0.002445
-0.439961
0.041657
-0.390633
-3.200913
0.088254
-1.484860
-0.959890
0.651969
-0.798523
1.416817
-0.516407
-0.501433
0.709602
0.746680
-2.444173
-2.353147
0.293304
0.490506
0.055814
1.742002
1.388248
-0.886385
0.453114
-0.880400
0.715403
0.472722
-0.329019
-0.018569
-1.103934
0.146410
-0.491430
-2.145012
-0.348244
-2.810749
-1.978217
-2.488589
-0.041361
0.943754
0.686078
-2.830947
0.071882
0.662661
0.290027
1.406476
0.564983
0.885859
0.504333
1.889728
0.201259
-0.857381
0.502878
-0.197387
-0.749450
-0.044008
-0.077788
-0.902722
0.163050
-1.800842
0.222638
-0.316811
-0.039852
-2.151804
-2.730020
-2.368427
-1.390957
0.507875
0.068823
0.962892
2.467003
1.602538
-0.291826
-1.135103
-0.815232
0.299643
-0.163399
0.750233
1.433518
-0.553985
0.887201
0.045177
-0.417049
0.390079
0.847789
-0.166499
0.270445
-0.657486
-0.604576
-1.292313
-2.757415
-2.398507
-4.582341
-0.308291
-2.707580
-1.856341
-0.043792
-0.807982
-2.446675
2.398728
1.893905
2.602355
1.484164
2.116923
0.127171
0.202657
-0.681413
0.222314
0.211274
-0.992276
0.662646
0.098475
0.052901
-0.618151
1.122993
-1.503539
0.482306
-0.762273
-2.630142
-2.477033
-3.239745
-1.933372
-3.537222
-2.650909
-1.573922
-0.063884
1.178383
0.499415
0.994665
0.776314
2.683886
1.547833
0.566299
0.920849
0.378848
0.325878
0.231799
0.142129
-0.457492
-0.556927
0.156298
0.113035
1.542766
-0.021277
-0.911630
-1.684246
-2.391330
-1.660559
0.479257
-1.776552
-0.544707
-2.587236
-1.552442
1.135074
-0.903812
0.863527
-0.207206
-0.006097
1.185142
1.729808
-1.691540
-1.963019
-0.250851
-0.712259
-0.912082
0.794848
0.793943
0.505723
0.293693
0.078142
0.305540
-0.449026
0.740266
1.152741
-0.550899
-0.803543
-0.492662
0.308467
-0.547471
-0.148435
-0.551770
-0.815515
0.414221
0.240565
1.603650
1.030398
-0.526455
-0.469540
-1.193569
-0.923368
0.942407
0.799662
0.661528
-0.354740
-0.546267
0.935452
-0.209622
0.000806
0.173147
0.860410
0.496391
-0.145611
1.387971
1.591300
-1.496766
-0.130504
-2.354540
-0.950828
0.893376
-0.004582
1.921577
0.993953
0.559409
0.749639
-0.547421
-1.542566
-2.400527
-0.947765
0.264562
0.492199
0.885478
-0.026253
0.472183
0.547006
0.969276
1.378807
-0.538893
1.196877
-1.752447
2.816256
0.143498
0.042199
-0.887137
-0.274169
0.215053
-0.164031
-1.816997
0.231006
-1.551459
-0.271206
3.131319
0.571199
-1.621865
-1.093088
-2.309335
0.869764
1.292577
0.456643
-0.870046
-0.012994
-0.056843
-0.984568
1.311023
-0.989101
0.662338
3.927977
0.320522
0.496011
-0.107171
2.742826
-0.791339
1.533670
2.542209
-3.111673
1.650808
1.464739
1.894835
-0.164035
-0.472262
-1.083502
-0.680411
-1.518591
-0.421464
0.929088
0.147497
0.633646
0.099037
0.130511
0.084605
0.228991
-0.882483
-0.950857
0.546291
-0.561467
0.036498
0.764924
0.291980
0.230559
0.797183
-0.039339
-1.105609
-0.819985
0.171023
-0.935807
-0.844786
-0.863731
0.691792
-0.396100
-0.219585
-0.732534
-1.363959
0.563176
-0.315297
-0.899491
-0.052391
0.828120
0.731313
-0.953354
-0.041369
-0.184082
0.771506
2.201846
1.422572
0.336697
2.554842
1.975328
-1.435141
1.557627
0.972766
-0.756767
-0.863237
-0.209662
-0.554782
-2.284417
-0.570743
-0.750011
-0.458842
0.016813
-0.124558
0.804433
-0.444773
0.329023
0.209308
0.239931
0.429532
-0.843083
0.068050
0.160845
-0.796437
-0.952720
0.990549
0.160742
0.621826
-0.026492
0.375620
0.169051
-0.074180
0.325808
1.620064
0.022944
-0.696953
0.434730
0.692416
0.648494
1.130436
0.490830
-0.394798
-0.511151
0.160728
0.285042
-0.706718
0.715955
-0.385935
0.502590
-0.044114
-0.956403
0.659507
-0.976064
0.197099
0.837786
-0.973033
-0.625636
-0.138683
-0.339864
-1.125896
0.107724
0.347323
-1.296113
-0.783882
-0.941565
-1.117841
0.201435
0.660160
0.835957
-0.323601
0.319802
0.326787
0.281600
0.808651
-0.512485
-0.433358
-0.898067
-0.796529
0.180707
0.604524
0.159357
0.223613
0.249503
0.121736
-0.660226
0.022047
0.174441
-0.236610
-0.524004
-0.627060
0.611599
0.788568
0.781907
0.720474
-0.521382
-0.721557
-0.992283
0.651193
0.937877
0.843674
-0.672408
0.257679
0.170461
-23.619488
784
0.066330
0.657976
-0.824166
0.168264
0.861447
0.356542
-0.227212
0.020804
-0.419154
-0.963182
-0.795903
0.009592
0.163919
0.438007
-0.380458
0.633291
0.825365
-0.768859
0.444195
0.623418
0.951615
0.922812
0.901860
0.959332
0.574005
0.839737
0.803005
0.901597
0.097416
-0.026534
0.510789
-0.836253
-0.368558
0.686623
0.332011
-0.507111
0.043165
-0.895202
0.513693
0.624011
-0.858383
0.717789
-0.366397
0.305536
0.155797
0.253145
-0.061173
-0.018838
0.484286
-0.616979
-0.395421
0.435901
-0.694166
-0.493560
0.395233
0.879839
-0.653823
0.198238
0.781436
0.443594
-0.828296
0.292225
0.607341
-0.196853
-0.021152
-0.060649
0.296036
-1.547463
-0.539504
-0.759194
0.084037
-0.538056
-0.467135
-0.720276
-0.508697
0.683314
0.532773
0.430446
-0.335524
0.017060
0.813151
0.269056
-0.547039
-0.881015
0.775495
0.848194
0.998824
-0.878328
0.046432
0.780260
0.565266
0.188982
0.050355
-0.223310
-1.541584
-0.913655
-0.917089
-0.651629
-0.095375
1.191753
-0.410858
0.685535
-0.786951
-0.481969
0.845546
-0.181676
-0.662121
0.531774
-0.736693
0.002355
-0.451166
-0.923543
-0.728589
0.001796
-0.804558
-0.953094
-0.150010
-0.805734
-1.081305
0.294450
1.004750
-0.098471
0.171697
0.593085
1.128455
-0.094746
1.070181
1.309605
3.441500
-0.333469
1.203811
-0.605403
-0.777443
-1.194176
1.031712
-0.164759
0.349570
0.572652
-0.578159
0.612876
-0.424992
-0.029325
0.689334
-0.153026
0.945522
1.071250
-0.185100
-0.260602
-0.871805
-0.586846
1.051949
-0.757005
0.537433
1.989330
0.556388
2.742367
2.494248
3.801718
2.431979
1.362402
-0.784363
0.331779
-0.595457
-0.751419
0.389417
0.237424
0.151751
-0.238911
-0.189923
0.573591
-0.626035
0.397361
-0.244367
-1.232037
-1.436883
0.166803
-0.029880
0.587484
0.253213
-2.100970
-1.992631
-0.276746
-0.309053
-0.634326
4.405727
0.923557
0.477416
1.825521
-1.451227
0.595747
-2.221936
-0.819484
-0.581374
-0.714102
0.012494
0.711936
0.642903
-0.734054
-0.526975
-0.654325
0.964123
-1.050924
-0.362331
-1.158250
2.006193
-2.492826
-2.947340
-1.154662
-1.179216
-3.514994
-3.414924
3.102144
-0.925775
0.742195
-0.445524
-0.170770
-2.654620
-1.519903
-1.058980
-0.157089
0.221517
0.231683
-0.721567
-0.365588
0.756806
0.512271
-0.534008
0.043505
0.495059
-2.101072
0.022216
-0.785879
1.445346
-0.420255
-2.960185
-0.348366
-3.038983
-3.991003
-5.608681
-0.441501
-3.698883
-2.096788
1.236337
-0.735195
0.116998
-0.310522
-0.800694
-1.132111
-0.452510
0.644173
-0.038282
-0.114139
0.115081
0.433877
0.612299
-0.631579
-0.465684
0.969806
-0.122828
-0.467594
0.106273
-0.348943
-0.714789
-0.769479
-0.962046
-3.643357
1.244024
0.679221
-1.366829
-2.639563
-0.249549
0.764956
-0.666930
-1.807360
0.227742
-0.144532
-0.937269
-0.372146
0.405282
-0.384058
-0.472463
-0.439274
0.501803
0.052599
0.097407
-1.533505
-2.523773
-7.216214
-5.224998
-4.419976
-3.701829
-0.095535
-0.507476
0.266972
-1.237663
0.786608
-1.492011
-0.922042
0.443713
-2.184141
-2.442772
-0.145180
-0.884826
-0.006999
-0.885475
-0.824870
0.875802
-0.787008
0.058494
0.474810
-0.171066
0.119858
0.218725
-1.523577
-2.774962
-3.640876
-3.249277
-1.749951
-0.268235
0.165426
1.116371
0.410438
-1.506428
2.935499
0.527548
0.294471
-2.399809
0.282572
-3.132690
-2.681762
-0.716907
0.065339
-0.636601
0.892923
0.724031
-0.172969
-0.812366
0.793560
0.040023
-0.100402
-0.419376
0.288522
-0.032424
-2.800180
0.386689
-0.680696
-0.080940
1.385475
-1.087598
-1.731965
-0.681843
0.333666
2.406767
1.742080
-2.608417
0.461058
-2.101260
-1.724698
-1.342416
0.466225
-0.491743
0.963275
0.772232
0.511334
0.975779
0.597964
-0.661635
0.936527
-0.571036
-0.845639
-0.232181
0.003766
0.600381
-0.444306
-0.857983
0.116771
-1.958185
-2.175183
-4.268505
0.796158
-0.199548
1.491821
-4.262220
-4.530707
-3.522101
-3.243882
0.848228
0.672590
0.570345
0.977944
0.710102
-0.678037
1.060801
0.703616
1.054579
1.030420
0.979998
2.133757
3.788047
5.013909
6.143769
2.684960
2.568579
1.112988
1.670478
-2.036540
-1.288968
2.137482
-1.798322
-0.895829
-0.469296
0.027078
-2.159875
-0.873698
-2.079536
0.717168
0.380777
-0.839669
-0.801367
-0.217189
-0.861724
0.908735
0.104774
-0.920505
4.188739
1.654967
4.351926
3.571362
2.472617
4.357612
4.446384
1.190279
1.208720
0.816610
2.074191
3.695449
5.688566
2.590335
0.275396
0.325295
0.050547
-0.334277
-3.154923
-1.062310
-0.245610
-0.302890
0.424487
-0.571156
-0.142559
0.623120
0.211655
0.455988
0.983100
0.309936
4.730939
4.077594
4.688788
-0.577645
1.578243
4.051684
-1.165181
0.800091
4.795921
2.252875
0.695836
-0.828041
-0.733002
1.647442
1.738242
-0.043526
0.027289
0.398087
-0.609333
0.406192
-0.888460
-0.360432
-0.896698
0.536027
0.068412
0.528602
0.436342
1.404691
2.080632
4.819833
2.466727
1.262263
3.434793
1.735055
-1.398966
2.441275
6.725937
3.711416
4.298206
4.157327
3.057965
-1.521326
-0.274095
-1.341447
-1.657543
-0.172348
-0.479587
0.351830
0.031638
-0.085697
-0.241978
0.143178
0.553871
0.260591
0.105387
-0.737616
0.724413
1.717574
4.934950
3.146179
-2.039266
-0.531193
1.428267
2.382164
3.443928
4.882599
4.880380
6.284776
0.584626
-2.170594
1.891247
-0.437571
-0.478496
-0.960136
0.032002
-0.266969
-0.572018
0.326099
-0.915139
0.459620
-0.758001
-0.144863
-0.203142
-2.154304
-0.117985
-0.396562
1.450961
2.595019
0.841071
-3.472665
0.320235
1.149731
3.027261
1.053164
-2.705531
-2.340190
1.266697
0.222635
0.429127
-1.680321
-1.305801
-1.247023
-0.989030
0.105794
0.061701
-0.300438
0.838825
0.489683
-0.974339
0.925848
-0.178936
-1.857790
-1.708570
-0.991282
-2.190472
-1.704885
-2.701177
-1.952779
-2.028919
-1.490725
-1.570563
0.331043
0.420268
2.451478
-0.020953
4.079840
1.859308
-0.100000
-0.013072
-0.686364
-0.460071
-0.224026
0.050745
0.346270
0.881767
-0.887554
-0.954168
0.720710
0.502611
-1.842886
-0.540725
-2.314415
-3.739626
-2.502545
-4.327584
-3.925280
-1.281401
-2.569179
-2.741731
-1.324494
0.782698
1.007665
1.327207
2.412719
3.267434
1.649580
2.450397
-0.158463
0.901020
-0.866677
-0.420965
-0.513515
-0.090703
0.629780
0.832755
-0.360434
0.634778
0.066729
-1.481178
-0.701106
0.023546
-2.534066
-0.810760
-1.934424
-1.013924
-0.838281
-3.761281
1.275519
1.990172
1.606724
2.727265
3.304103
3.015697
0.392037
0.830730
0.801267
-0.888620
-0.781311
0.580249
-0.971832
-0.647987
-0.840716
-0.485347
0.254119
0.793855
-1.371274
-2.089145
-0.723709
-2.342511
-2.803880
-2.080364
-3.963865
-0.548960
-0.892745
-4.738650
1.853362
4.042557
2.990723
1.883191
1.421719
3.073107
1.158775
1.318213
0.255328
0.569858
0.862047
-0.544578
0.674835
-0.919263
-0.964329
0.703003
-0.567251
-0.784702
-2.183907
-0.718760
-0.552770
-2.756367
-1.552395
-1.800197
-1.302842
0.040898
-1.022962
-3.242999
-1.198447
-4.022818
0.593304
-0.730562
-0.483343
-0.325096
0.298758
0.641412
0.289625
-0.885407
0.177610
-0.769952
0.684451
0.039657
-0.314530
0.359286
0.120393
-0.278859
0.062266
0.536834
-0.750088
-0.378984
-0.469188
-0.935546
0.030354
-0.295643
-0.669271
-1.511866
-0.411532
-2.061915
-0.131342
-0.966099
0.663130
-0.074769
-0.335110
0.901918
0.614134
0.704064
0.542774
-0.096241
0.818657
-0.279616
0.133807
0.503108
0.760041
0.819276
-0.137606
-0.134871
-0.491735
0.874593
-0.630943
0.392999
0.138515
0.603114
-0.686297
-0.023593
-1.282188
-0.996609
0.463527
0.702929
0.370786
0.165068
-0.686950
0.547206
-0.677035
-0.035232
0.449124
0.937099
-0.331168
-0.008101
-0.159142
-0.512511
0.712283
0.974664
0.990597
0.472323
0.794446
-0.155181
-0.647295
-0.672975
-0.278721
-0.255665
0.766802
0.965179
-0.544106
-0.846728
0.031942
0.141530
-0.080450
-0.282350
0.120047
-0.502016
-0.993436
0.433097
-0.954810
-0.670471
-0.602135
-10.215193
784
-0.733372
0.066697
-0.513788
0.107485
0.554186
-0.801505
0.082149
0.544783
0.670818
-0.123910
-0.602225
-0.976424
0.210447
0.175450
-0.190089
0.001317
0.157754
0.277026
0.148815
-0.810304
-0.581444
-0.931634
-0.092654
0.538602
-0.433650
-0.086090
-0.028301
-0.388461
0.243439
0.369564
-0.894147
0.510066
-0.563739
-0.407935
-0.382448
0.990447
-0.209440
0.699701
0.535230
-0.538621
-0.424210
0.933005
-0.515045
0.786237
0.108455
0.294866
-0.212445
-0.733791
-0.428108
0.936370
-0.544096
-0.009552
-0.995265
0.363250
-0.470950
-0.428915
-0.722840
0.500749
0.182624
0.520599
-0.129687
0.288477
0.030665
0.306574
0.880543
0.648217
0.297021
-0.328897
0.473911
0.160691
-0.152367
1.051126
0.715618
0.200037
0.709946
0.873712
-0.087697
-0.501157
-0.860080
0.484195
-0.566130
-0.404175
-0.525357
-0.561394
0.959075
0.003692
0.009691
-0.763765
-0.495559
-0.807685
0.756834
-0.366769
0.240996
-0.310084
-0.325370
0.781410
-0.531417
1.593336
-0.362660
1.682046
1.805747
1.197422
1.235063
0.751866
-0.246663
0.603994
0.489470
0.695189
0.914789
0.594774
0.178854
-0.651341
-0.814686
0.653497
-0.212735
-0.855611
-0.342811
0.734524
-1.364811
-1.708172
1.013826
-1.717784
0.187730
-1.098919
1.393703
0.525337
-0.026770
2.496243
1.232336
0.179141
1.202764
-0.091392
0.975490
0.786880
1.940312
1.135361
-0.731060
0.032091
-0.494230
-0.816271
-0.378420
0.684624
-0.467612
-0.193106
0.283299
0.209785
-0.807524
-0.038626
-2.818310
-1.817539
-3.445663
-2.380146
0.557290
1.178547
1.333387
1.114111
2.230931
-0.773785
0.862317
0.194170
-2.716836
-0.778723
-0.119374
-0.718072
0.888022
0.823166
0.111038
-0.980104
-0.271620
0.616808
-0.796375
0.349960
0.292618
-0.962004
-1.158415
-3.677704
-2.840311
-0.008722
0.825800
-0.739494
1.886753
0.812593
-1.449682
-0.113700
2.349883
-0.059976
1.094941
-1.571521
-2.229904
-2.625168
-0.851896
-1.402869
-0.659722
-0.382965
-0.167471
-0.291014
-0.686676
0.941119
-0.271118
0.041703
0.252130
-1.477715
-1.201792
-2.608307
1.391647
-2.051288
1.258523
1.086342
-1.758204
-2.469081
-1.075881
-2.329033
1.107758
0.242368
-0.614457
0.879170
-0.087150
-0.952238
-2.096845
-1.505035
-1.913261
-0.675088
-0.174623
0.326590
-0.070380
0.652813
-0.964424
0.230906
0.353280
-0.239827
-1.753244
-0.706680
0.323885
-0.234520
-0.715568
-0.949622
-0.534958
-0.135517
0.817127
0.801690
-0.403829
-0.587174
1.204297
2.528089
-0.027313
-0.568234
-0.563332
0.029678
-1.112772
-0.181241
0.482213
0.662678
0.121663
-0.700148
-0.010732
-0.960755
0.629941
-0.730092
0.023397
-0.770385
1.008091
2.002301
0.000678
-0.964137
-1.960321
-3.072722
-1.042579
-2.493105
-1.474306
-1.340135
-0.964397
-2.024481
0.779818
2.101780
0.565581
-0.350297
-0.983851
-0.486397
-0.719634
0.618067
0.313000
0.754840
0.280745
-0.577375
-1.057249
-0.046684
1.971722
0.235741
0.334000
-0.426210
0.251315
1.778699
1.311388
-1.529609
-1.427350
0.235505
-0.339394
-0.566950
-1.209316
0.278370
-0.783693
1.345209
0.023057
-0.393807
-0.240543
-0.283929
-0.617928
0.119343
0.210311
-0.345301
-0.262590
-0.476689
-0.102277
-1.149699
1.697660
-0.521164
1.665748
1.339275
0.868411
3.004374
1.018848
-3.936451
-0.850750
-1.471021
-2.981445
-1.483888
-0.395164
-0.684397
0.612454
1.443480
-0.176490
-1.056022
-0.124711
0.876124
0.314528
0.542723
-0.427168
0.691506
-0.337934
0.783143
-0.241843
0.697437
0.513880
0.636783
3.177363
1.388446
4.629700
0.993672
1.162035
-0.245204
-1.228622
-0.920205
0.491401
-1.293471
0.261538
-0.733675
2.451639
0.085427
1.420501
2.176655
-0.607745
-0.797328
0.876798
-0.248125
-0.940567
0.188879
-0.705402
-0.367734
-0.259264
2.660448
0.944701
1.940207
1.983681
3.159220
1.179836
1.759258
0.500949
-0.960595
0.411632
0.243956
2.638561
-2.413319
-2.230516
-0.223021
1.010982
0.788027
1.122461
2.547817
1.972375
-0.544691
0.771446
0.860145
-0.361382
0.645797
-0.390428
-0.304396
-0.209682
1.356708
2.859060
1.926012
3.888185
4.670652
-0.230267
0.943574
-0.508130
-2.686262
1.028975
-1.465131
-0.819258
-2.695371
-3.808274
-2.712796
-0.395025
-0.778273
0.960927
1.943265
1.805292
-0.126410
-0.116397
-0.226144
0.306891
-0.344950
-0.365999
0.945509
-0.967060
1.246096
0.420910
0.110961
0.038525
2.447229
0.278410
2.589311
0.437200
-0.783524
-1.018433
-0.587421
-3.580972
-2.822612
-2.208138
-0.763615
1.807988
0.832976
-0.763077
2.210784
2.406481
-0.869750
-0.089330
-0.516548
-0.020822
0.791627
0.257308
-0.866792
-0.714744
2.336027
-1.020487
1.350445
0.656669
2.308007
1.535377
0.800247
1.067052
-2.840313
-0.339403
-0.612832
-0.201015
0.873195
-0.697160
1.677629
0.055333
0.359325
-0.942107
1.506944
0.350469
-0.438518
0.416147
-0.248326
-0.330291
-0.678475
0.235126
0.714485
-1.186665
-0.583912
1.179901
-0.124767
2.863788
0.035365
0.707842
0.829547
0.411559
-1.756110
-1.051102
0.214660
-0.445443
-3.030800
1.254272
1.124398
1.280587
1.388815
-0.562042
2.110963
0.427070
-0.677748
-0.098409
0.798478
-0.135643
-0.687554
-0.449847
0.599658
-0.069130
-0.154257
-0.899173
1.705470
-0.308560
2.941968
4.202498
-0.468157
-0.320683
-0.298381
-3.799311
-1.914682
-1.021648
-2.532038
-1.701215
2.483632
0.454774
-0.068774
-2.252050
0.900254
1.754242
-0.669644
-0.749686
-0.496782
-0.417907
0.095475
-0.698303
0.533661
0.866022
0.138990
-0.919442
1.094945
0.194251
-1.043450
2.633304
0.171172
2.514338
-2.336169
-4.313108
-1.429896
-1.038170
-0.474216
0.434699
-2.139649
1.071778
1.095756
-1.233604
1.044144
1.654088
-0.289251
-0.365849
0.676061
-0.080549
-0.171965
-0.820721
0.588760
1.341056
-0.572759
-0.249153
1.109742
0.561576
-0.056688
-0.105148
1.765859
-1.257338
-1.343743
-1.929204
-1.916472
-1.231864
0.203439
-3.231644
0.616897
-0.084884
-1.475266
-1.076573
-0.887926
1.618715
0.827453
-0.162184
0.724695
-0.532306
0.466676
0.400755
0.387145
-0.706304
-1.052534
0.586043
-1.723901
0.016500
-0.151581
-1.679403
-0.547978
2.858698
-1.939243
-0.255696
1.174367
2.469803
2.906898
-0.393900
1.336297
-1.822346
-4.169448
-1.752214
-0.083682
-0.578007
0.830046
0.904521
0.940674
0.635491
-0.262955
0.665369
-0.896815
-0.806905
0.059731
0.835915
-1.142780
-0.928945
-0.096766
-0.252695
0.265840
1.763275
2.848614
-2.633806
1.661898
0.596854
0.905072
0.451510
-0.282099
-2.369326
0.155290
-0.324402
-1.002672
-0.337888
0.945131
0.355264
-0.760885
0.750523
0.254493
-0.820210
0.386014
0.984747
2.231024
-0.125004
-1.769211
-1.107954
-1.306065
0.562758
-0.169218
1.818938
1.704783
-0.259081
1.863992
0.999652
-1.150203
-0.452589
-0.950924
0.008506
-0.311260
-0.146404
-0.061573
-0.538210
-0.241297
0.966817
-0.299916
-0.308494
0.319435
-0.060801
-0.557971
-0.472079
0.091660
0.781509
-0.464243
-1.694453
1.468074
-1.090954
1.652136
2.009037
1.061572
-1.199190
2.945306
-0.511532
-0.646601
0.651061
-0.757605
-1.873650
-0.759966
0.407363
0.893496
-0.822098
-0.452144
0.437273
-0.360308
0.306559
0.404090
0.339776
0.998066
-0.276475
-0.721025
-0.563340
0.380573
0.337414
0.490929
0.944399
-0.882644
-0.001683
-1.437204
-2.098053
-0.966694
-0.473403
0.525990
0.511071
-0.069200
0.355851
-0.232975
0.484243
0.430981
0.551726
-0.108414
0.324477
0.729628
0.439443
-0.238250
-0.630680
-0.253998
-0.834160
0.709096
-0.266718
-0.121421
0.976276
0.127369
-0.031579
0.291049
0.378929
-1.444944
-0.170291
-0.704136
-0.831308
1.183269
-0.092212
-0.260588
0.644058
-0.542712
0.694277
0.023985
0.224312
0.178521
-0.545035
-0.223962
-0.929893
0.779442
-0.494334
0.509549
-0.458807
-0.125014
-0.744448
-0.292968
-0.415918
-0.045650
0.474461
-0.506716
-0.853791
0.443532
0.933492
0.636082
0.688335
0.706334
-0.326239
-0.493665
0.692020
0.593586
0.257783
0.348116
-0.949126
-0.047939
-0.627899
0.275187
-18.034868
784
-0.172934
-0.948775
-0.799312
-0.393492
-0.443109
0.710238
0.147701
0.431878
0.965789
0.854733
-0.984040
-0.034591
0.451130
-0.411887
0.149191
0.234344
-0.453699
-0.214727
0.067295
-0.747364
0.459034
0.573630
0.944656
0.052621
-0.168587
0.292772
0.103495
0.783474
0.664873
-0.621319
0.914055
-0.508061
-0.570094
-0.885257
0.098447
-0.013202
0.824981
-0.753852
-0.581324
0.790770
-0.899119
-0.565364
-0.243821
0.552011
0.022749
0.905370
-0.213645
0.569051
-0.309357
0.853650
0.821687
-0.850322
0.427280
0.766342
0.202298
-0.741307
0.059114
-0.694207
-0.957833
-0.276013
-0.315526
0.956222
0.215925
0.114380
-0.929034
-0.685628
-0.898822
0.895946
-0.439480
-0.476008
0.690855
-0.334460
-0.041372
-0.557105
-0.786587
0.977239
-0.651735
-0.000232
0.546290
0.038909
-0.146582
0.367977
0.188586
-0.719302
0.134319
-0.609116
-0.460609
-0.806567
-0.303323
-0.418442
-0.082580
0.381113
-0.462733
-0.855581
-0.491477
-0.263740
-0.566761
-0.324644
-0.425938
-0.203857
-0.363321
-1.379317
0.169525
-1.125114
-0.359673
0.889076
-0.951707
-0.017430
-0.117179
0.594584
-0.978522
0.736239
-0.037439
0.210064
-0.983063
-0.903120
0.600949
-0.439337
-0.138755
-0.047499
-0.073094
0.685302
-0.112886
-1.970995
-1.664323
-0.390510
1.774902
5.369540
1.508315
-1.160209
-2.393687
1.429387
-0.620189
-0.617128
0.985004
0.579211
-0.650272
-0.993072
-0.402612
0.232550
0.601511
-0.381134
-0.031211
-0.435897
0.881656
0.279297
-1.031063
3.087740
1.740229
-1.787961
1.381982
0.967581
-0.274136
0.447960
1.049790
3.004648
1.208004
-1.339551
0.883170
-2.876479
-1.358564
-0.502558
-2.162586
-2.144049
-0.624900
-0.725191
-0.975541
-0.097687
-0.795250
-0.378153
-0.865137
0.793260
-0.009732
-0.507300
-1.957175
2.527731
-1.676969
-0.071748
-0.931884
-1.971031
0.820435
-0.342783
-1.619830
0.405831
0.067989
-0.231562
-0.406558
0.275588
-1.099493
-0.867130
-1.602373
-1.772252
-0.692576
0.974801
0.145771
0.568992
-1.109788
0.155078
-0.118108
-0.584678
1.184854
-0.549624
-0.537941
0.672366
0.332422
1.332253
1.341794
0.671775
-0.699835
0.275121
-1.540327
1.301919
1.007448
2.143063
0.608121
1.100936
0.736331
-0.260151
-2.192528
0.071056
-0.575443
0.646261
-0.560350
0.127767
-0.065907
0.582743
0.107345
-0.153309
0.105831
-1.027119
-0.640659
0.844074
1.122313
1.155204
0.451321
0.177414
-2.059686
-1.346811
-0.517258
-3.677808
-0.709725
0.571731
-0.629770
-0.342361
0.712841
1.568607
-0.692630
-0.105023
0.400481
0.681890
-0.431600
0.297851
-0.605742
0.017845
-0.163796
0.350736
0.389489
-1.435109
-0.997578
-0.561356
1.933116
0.801706
-0.255542
1.923693
1.256902
-0.585382
-3.165494
-2.958210
1.037901
0.231808
0.106856
-0.077385
1.154378
-0.947840
0.071860
0.301734
-0.936184
-0.322939
-0.145836
0.508531
0.412585
0.432360
-0.193618
-1.170772
-0.178155
-0.822375
-0.219690
-1.705962
0.845344
0.637196
-0.448071
0.190568
2.454926
0.992970
-0.628037
-3.360468
-2.530657
0.107629
3.530709
-1.293139
0.024093
1.772985
-0.695112
0.264211
-0.845057
0.902846
-0.374644
-0.558158
0.633541
0.489316
0.950373
0.068172
0.303816
-1.175381
0.456988
-1.563540
-1.187069
-2.660587
-0.895565
-1.858669
-0.705227
2.399727
2.820510
-0.912276
0.564307
2.801024
1.058284
2.715699
3.413743
-1.898351
-0.698937
-0.440785
-0.892185
1.046661
0.681943
-0.834164
0.003141
-0.695379
-0.392322
-0.341272
0.666884
-2.314669
-3.279828
-2.806814
-5.233551
-2.520954
-3.177719
0.354304
-0.046381
2.722433
-1.535149
0.816402
2.129655
0.548766
1.055958
2.316527
1.428341
-0.676282
-0.656987
-1.984647
0.108260
1.108737
0.333629
0.088766
0.209032
0.000421
0.254602
-0.765781
0.522805
-0.556479
-2.944163
-5.374209
-3.365413
-1.741696
0.544659
-1.343697
1.509250
1.661495
1.274029
1.428767
0.389424
0.799965
-0.127423
-1.849724
-2.023576
-1.726115
-0.551875
-0.804606
0.953751
0.328300
0.939890
-0.067595
-0.509329
0.146065
-1.106284
0.594295
-0.957499
-1.597724
-2.606265
-1.736589
-2.254610
-1.848943
-0.935862
0.601522
3.046908
3.541025
1.362874
2.524888
-0.157046
0.908171
-0.467917
-2.868433
-4.154905
-1.122404
-0.465434
-1.458358
0.344290
-0.095337
0.989790
-0.303386
0.411373
0.929680
0.629019
-0.985652
0.419406
-0.180328
0.910120
1.752586
-1.995177
0.823533
-0.801932
-1.324515
0.111036
-0.999843
-0.777057
1.514575
2.472429
1.875235
-1.228504
0.231970
-0.513180
1.463660
1.135640
-0.764106
1.310006
1.116207
-0.409059
-0.335372
-0.788246
-0.406796
0.361242
0.623127
-0.171963
-2.189912
1.349085
2.546723
2.638017
3.118194
-0.506371
-1.298988
1.979701
-0.802063
-0.117754
-1.392714
-0.656938
-0.956270
-2.487141
-0.189772
-0.002799
0.885690
-1.349617
0.252290
-0.856090
1.004617
0.670166
0.882647
0.299235
-0.713947
-0.452725
0.515510
-0.275243
2.040367
1.125641
2.794069
2.564591
1.896866
2.554412
0.818799
-0.448807
-2.436520
-3.639689
0.331901
-1.634612
-0.031671
-1.238080
1.357293
0.792733
0.802812
1.815701
0.125606
0.225284
-0.467718
0.562053
-0.149071
0.702836
0.257165
-0.263768
0.005373
0.503748
3.292842
1.127108
2.768830
0.983627
1.949870
-0.982675
0.074677
-2.159765
-3.885526
-2.184062
-1.206295
1.414003
-1.770315
0.700341
2.276329
1.761620
-0.289144
1.198150
1.444021
1.009260
0.089668
0.603166
-0.184221
-0.212113
0.190165
1.079950
-0.695503
-0.564244
-0.048673
1.060733
0.501337
0.118271
-0.761480
0.922069
-1.837944
-1.072063
-1.177841
-0.960723
-3.544848
-0.891495
-0.206590
1.542899
0.832666
0.629811
2.046382
-1.066044
0.439204
-0.027657
0.786781
-0.766325
-0.133339
-0.957614
0.861787
1.093027
-0.353182
0.038341
0.209856
1.843072
3.416416
0.938352
-0.374326
-0.736484
-0.430825
-2.720969
-0.701570
-0.779344
-2.376964
1.271874
0.750390
-0.401595
-0.037182
0.176248
0.445744
0.246557
-0.403123
0.317145
-0.290984
0.940486
-0.912045
0.661734
-0.800893
0.365203
0.529126
-0.744495
-1.747459
-0.051911
1.540034
1.602987
2.886160
0.236311
-0.408332
-1.092701
-0.915324
-1.694392
-0.604410
-0.097462
-0.358619
0.701121
-0.124447
-0.408630
0.613549
-0.005965
-1.791264
1.253244
0.701786
0.725078
0.099778
0.589213
0.690511
0.598319
0.482540
1.147022
-1.537363
0.089363
3.305640
-1.114432
-0.276433
-0.800773
1.000003
0.712141
-0.416061
-0.598994
-0.172475
0.938091
-0.873217
1.165173
0.493709
0.041446
-0.599084
-0.525681
1.137426
1.324989
0.808466
-0.578013
0.858937
-0.298863
-0.827988
-0.041285
-0.705498
1.084025
0.622021
2.203733
0.012820
1.102446
0.843075
1.430429
2.193545
1.986401
0.749094
1.243368
1.697555
0.981162
-2.194482
-1.465228
-3.126119
-3.125293
-0.634244
-0.840028
-0.046120
-0.685501
0.928830
-0.001048
-0.717864
0.332738
0.433412
-0.858926
-0.966126
1.080217
0.535206
-0.676671
0.334422
-0.201866
-0.324060
1.143868
0.259269
0.197165
1.548459
2.682959
-0.189222
-1.848515
0.352370
1.913094
1.253871
1.981250
2.448635
-0.589010
-0.225367
0.870629
-0.649552
0.911870
-0.817499
-0.720722
-0.089178
-0.535363
0.612016
-0.655766
-0.394571
0.569802
-0.050405
0.574497
0.762001
0.058464
-3.070809
0.230553
-0.493795
-0.553897
-0.757852
0.357025
0.131367
-0.415553
0.288407
0.521364
-0.779462
0.379441
-0.700817
0.246688
0.728657
0.073816
0.117317
-0.920895
-0.014314
0.299817
-0.641617
0.896507
0.764454
0.966915
-0.780234
-0.674823
0.530645
-0.850044
-0.949865
0.564032
0.519082
0.026971
0.421980
-0.754307
0.559035
0.664759
0.806463
-0.395480
-0.835222
0.055306
-0.868756
-0.611617
-0.565253
-0.569574
0.635071
-0.836597
0.504242
-0.247613
-0.757491
-0.510073
-0.947795
-0.399108
-0.613565
0.816659
-0.428713
-0.372831
-0.814417
-0.812452
-0.182429
-0.737512
0.773984
-0.574423
0.289888
0.196021
-0.328730
-0.195941
-0.184424
-0.522608
0.408238
-0.019647
0.532698
0.539482
0.368736
-9.744719
784
0.969908
0.003807
-0.869151
0.474150
0.756195
-0.626643
0.964077
0.808399
-0.025751
-0.649488
0.625058
0.545540
-0.022313
0.811882
0.733120
0.795262
-0.925630
0.507104
-0.779161
0.364258
-0.296875
-0.107892
-0.831683
0.518701
0.369501
0.576555
-0.500946
-0.097801
0.116037
0.867791
-0.130356
0.085945
-0.128402
0.000493
-0.439906
-0.372207
0.373850
-0.475829
-0.563808
-0.651901
-0.125317
-0.938749
0.893639
0.852370
0.873133
0.626759
0.647632
0.947503
0.133863
0.868470
0.311761
0.836989
-0.239422
0.480078
0.355690
-0.869921
0.056633
0.854744
0.032278
-0.827331
0.722535
0.901922
0.258614
-0.405867
-0.097585
0.818708
0.221926
-0.723734
-0.657121
0.652928
-0.380825
0.217562
0.718813
-0.482552
0.069932
0.592502
-0.855237
-0.282437
0.540005
0.278626
-0.413967
-0.148234
0.115615
0.346612
-0.668156
-0.528696
0.476691
0.388476
-0.673952
-0.491031
0.561146
-0.871424
-0.554529
-0.145661
-0.362501
0.298983
-0.490379
0.641864
0.236274
-0.197069
0.382044
-0.769923
-0.748489
0.164666
-0.403013
0.159502
-0.165583
-0.123296
0.986404
-0.625363
-0.844670
-0.427562
0.226403
0.270945
0.919049
0.558247
0.742249
0.395740
-0.415181
-1.140343
0.307623
-0.915820
-0.754740
-0.249224
0.815911
-0.596603
0.899194
1.140621
0.051176
0.553345
-0.193381
-1.192448
-0.015377
0.095709
-0.006970
-1.136097
-0.584807
-0.776237
0.041060
-0.598402
-0.401600
0.196391
-0.025965
0.824803
-0.532664
-0.085172
0.326577
-1.088445
-1.150551
-0.845276
-0.403824
-1.416777
-0.182567
-2.458877
-2.113146
-1.824064
-2.300443
-1.306561
-1.324263
-0.008688
0.495792
0.457360
1.221290
-0.401295
-0.794818
0.293534
-0.046711
-0.359641
0.538494
0.994349
0.041956
-0.863106
0.212034
-0.981510
0.794099
0.340561
-0.351878
0.873187
-0.161559
1.703578
0.709212
-0.609144
0.510295
0.954482
-0.588431
1.653467
0.526101
0.139186
0.221137
0.837498
1.446379
0.759253
0.866316
0.398868
-0.815943
-0.887215
-0.286400
0.127558
-0.246856
-0.703956
0.099663
1.023192
-0.583205
-0.633586
-0.055860
-1.352713
0.309925
-0.041263
0.419100
0.954266
1.748316
0.334917
0.195817
1.173360
2.261981
0.051664
1.738816
-0.174812
-0.531565
0.157662
0.541815
0.731586
-0.387032
0.255983
0.100825
-0.181929
0.368768
0.858375
0.889272
-0.567329
-1.386999
-0.210103
-0.388246
0.280747
-0.947200
0.130025
1.881134
-0.135145
0.331803
-0.497867
-0.171438
0.333647
0.643610
0.397261
0.791619
1.068677
1.156823
-0.760846
-0.628239
-0.935091
-0.896246
0.681615
0.706404
-0.231400
-0.062402
-0.148821
0.575663
-0.626684
-1.221672
0.136483
-0.283088
0.912965
-1.402966
0.345327
1.421863
0.830388
-0.504184
-0.414881
0.696028
0.070203
-0.621471
0.449039
1.177263
-0.788899
0.472093
-1.466590
-0.809277
0.781005
0.418918
-0.609985
0.757497
0.574550
-0.928370
0.507851
-0.602560
0.245207
-1.290504
2.031772
0.566650
0.794491
-0.146721
-1.341867
1.669358
-1.257124
-2.983239
-1.897385
-1.580391
-1.731992
-0.183831
-0.739259
0.144216
-0.240904
-0.874843
-0.313240
0.363060
-0.442691
-0.894774
0.525824
-0.750104
0.576022
0.915839
-0.948657
0.216679
1.208026
0.528290
1.595892
-0.140483
1.501793
0.534189
-0.633031
0.331771
-1.973035
-2.251650
-2.939679
-1.054790
-1.812261
-1.705656
-0.353483
-1.093295
0.623457
-0.041301
0.090658
-0.279221
0.911525
-0.435679
-0.809644
-0.652090
-0.309408
0.716180
-0.358244
-0.689406
1.612177
0.068910
1.568533
1.544101
-0.460391
0.793035
0.835920
1.891623
0.847668
0.136364
-0.444867
-0.129726
-0.583256
-1.048369
0.370937
0.472126
0.644009
-0.688820
0.210047
0.336102
0.723856
-0.570037
0.967678
0.514457
-0.015504
-0.841966
0.906317
0.708972
1.285813
0.059939
1.893200
0.224105
-0.519785
2.345607
1.909163
2.122274
0.458575
0.600939
1.138427
-0.591269
-0.543509
-0.373596
-1.004259
-0.309308
-1.089037
0.778785
-0.478920
0.675405
0.627518
-0.777128
-0.077350
0.230450
-0.356953
-0.119460
-0.220930
1.124667
0.465666
-0.699892
0.556042
0.560799
0.215101
1.098690
1.102223
-0.381785
0.907642
-0.187353
0.178871
0.190779
0.780755
-2.262042
-1.580124
-0.029374
1.157983
0.248186
0.397489
0.869311
0.819291
-0.593126
0.431804
0.356717
-0.370254
-0.645547
-0.412832
0.335885
0.803713
-0.736033
0.137426
0.417222
1.455322
-1.134230
0.962138
-0.148050
0.373763
1.724432
0.593991
-0.789034
-1.471189
-2.039654
-0.099715
-0.906750
0.310992
1.126847
-0.131785
-0.332363
-0.772005
-0.946638
-0.964360
0.988027
-0.508931
0.467443
0.320730
-0.117321
1.219500
0.185001
-1.234195
0.560995
-0.291806
-0.568237
-0.449874
0.436869
0.912865
0.659598
-0.577765
-0.006656
0.018915
-0.298539
0.748137
0.183628
0.589349
0.390483
1.503711
-0.475770
-0.202844
-0.653865
-0.286112
-0.064941
-0.538838
-0.250473
-0.089442
-0.470905
-0.235705
-1.443408
-1.323237
-1.142537
-0.647927
-0.307923
-0.387820
0.026520
-0.812027
-0.234493
0.996735
0.239794
-0.129449
0.622681
-0.068365
-0.044896
-0.685797
-0.328811
0.120346
0.994155
0.318725
-0.436080
-0.595234
0.994957
-0.028280
0.118654
-0.342393
0.417890
0.866410
0.320387
-0.755839
-1.372844
-0.898479
-0.496578
-0.485204
-1.524930
-0.740130
0.016719
0.266605
0.554956
1.108432
0.347372
-1.949207
1.122411
1.246792
-0.461204
0.965926
0.595533
-0.003041
-0.353894
0.546593
-0.805240
0.271691
0.951359
-1.038742
-0.565647
0.678421
-0.283086
-0.126465
-0.944108
-1.113896
-0.592326
-0.369787
-0.890586
-1.840884
-0.600046
-0.220041
1.973391
0.034444
0.006353
-0.689832
0.201324
0.490316
-1.115260
-0.256054
0.040335
0.188061
-0.226305
-0.465395
-0.935904
0.481467
-0.918803
-0.969603
0.302555
-1.011527
-0.781557
0.398409
0.236511
-0.982658
-0.332434
-1.224016
-1.545066
-1.419787
0.815915
0.297693
1.276844
0.160204
0.109652
0.898461
0.403907
-1.215405
-0.178518
-0.749304
0.950902
0.323308
0.437139
-0.122477
-0.609555
-0.727500
0.412127
-0.615523
0.698579
0.246832
-0.800399
-0.276207
0.530117
0.104418
1.121473
-0.029146
-0.600726
-0.020330
-0.275668
-0.859007
-0.508569
0.751832
0.344289
-1.409092
0.305942
1.004148
-0.337404
-0.837754
-0.832346
0.808587
0.162634
-0.897580
0.041803
-0.338561
-0.020057
0.540705
-0.826038
-1.261561
0.801567
0.022965
1.102873
-1.096597
0.921376
0.001996
0.338871
0.290670
-0.741858
-0.373401
-0.022139
0.143740
-0.159978
-0.046902
-0.277192
-0.464924
1.179403
-0.696450
-0.444525
-0.146942
-0.110583
-0.170253
-0.397614
-0.886284
-0.067832
0.644176
-1.011191
0.916243
-0.826492
-0.092372
-0.319806
-0.447176
-0.612552
0.124698
0.899899
0.983057
0.839608
-0.960095
-0.730184
0.781335
0.767703
-0.183996
-0.509009
0.411337
-0.258548
-0.208234
-0.747978
-0.097081
0.178817
-0.122121
0.726347
-0.900934
0.707627
-0.671267
-0.798730
-0.363067
0.895959
0.002045
-0.040378
-0.900421
-0.306574
-0.172363
0.288966
0.628920
1.643366
-0.971704
0.213911
-1.515611
-0.354038
0.006591
-0.662169
-0.237761
-0.857144
-0.363405
-0.698585
0.095005
0.428361
-0.446563
0.997924
-0.392822
0.431316
0.724271
-0.293756
0.417539
-0.700890
-0.136321
0.325740
-1.712862
-0.245177
-0.030147
0.283477
-0.905918
-0.221205
-0.559373
1.085077
-0.825910
-0.248771
-0.615910
-0.121101
0.565441
0.360901
0.165984
-0.714991
0.503757
0.802579
-0.413575
-0.401238
0.230940
0.139862
-0.403314
0.838118
-0.428822
-0.679042
-0.103916
0.356094
-0.996256
0.424233
0.393385
-0.711974
0.296510
0.779811
1.337881
1.818660
-0.121229
-0.436943
0.672367
0.238616
0.226922
-0.943549
-0.882486
-0.207637
0.417352
0.283498
0.077373
-0.078891
0.086077
0.663797
0.519871
-0.682983
-0.196341
-0.883443
-0.844865
0.374845
-0.576671
-0.341696
0.071382
-0.207108
-0.903666
-0.426183
0.211366
0.387277
-0.735585
-0.313459
0.507578
0.399546
0.249590
0.179945
-0.361838
-0.523488
0.236396
-0.244324
0.268875
-9.641568
784
-0.960826
-0.653752
0.574857
0.125251
-0.989955
0.094728
0.442268
-0.186296
0.211285
0.597403
-0.811459
0.648800
-0.703101
0.273500
-0.539723
-0.540218
0.847317
0.671643
0.993016
-0.759365
-0.641816
0.500593
0.640181
0.607774
-0.319462
-0.721657
-0.915714
0.916935
0.034019
0.353162
-0.429317
0.073193
0.699409
-0.854460
-0.801556
0.709454
0.240267
0.640713
-0.476842
-0.548448
0.238115
-0.288300
-0.899648
0.535014
0.985200
-0.439371
0.994796
0.832517
-0.767727
0.987811
-0.926848
-0.409543
0.488405
0.713333
-0.801769
-0.831057
0.991676
-0.717482
-0.914122
0.025695
0.635679
-0.343440
-0.901112
0.335089
-0.197900
-0.702668
0.044543
-0.957632
0.938045
0.567701
-0.506080
0.176160
-0.720599
-0.405728
-0.288826
-0.735400
0.154902
-0.294030
-0.902883
0.387174
-0.306219
-0.829731
0.977631
-0.817814
0.883603
-0.824138
-0.648871
0.875278
-0.541620
-0.562994
-0.099027
-0.905940
0.093567
-0.000139
0.429148
0.895667
0.297193
-0.526309
0.932043
0.229246
-0.964599
-0.568046
-0.588603
-0.679206
0.026226
0.122571
-0.414606
-0.818872
0.828541
-0.317489
0.568303
-0.477678
-0.147220
0.545934
-0.295492
-0.263617
0.721796
0.055636
-0.388339
-0.819824
0.492642
0.512634
-0.725764
-0.413791
-0.494652
0.686179
-0.537397
0.777357
-0.855255
-0.592807
0.046142
-0.787201
-0.153805
0.456323
-0.460738
0.878090
-0.421106
0.124656
-0.940781
-0.592565
0.807167
0.627521
-0.070243
-0.340052
0.173455
0.634264
0.396331
-0.104749
-0.310100
-0.992008
0.067069
-0.825816
0.507327
0.322032
-0.279168
-1.004882
0.014067
0.207879
0.820865
0.213236
0.651665
-0.121218
0.448592
-0.467271
-0.645614
0.987854
-0.599509
-0.077048
0.112510
-0.540290
0.330387
-0.080323
-0.912769
-0.739857
0.579625
0.260686
0.894407
-0.024044
-0.852422
-0.424925
-0.035343
0.190983
-0.291828
-0.559802
-0.468197
0.483094
-0.493805
0.617187
-0.230659
-0.636282
-0.152588
-0.540740
0.278567
-0.687210
-0.020834
0.612297
-0.699355
0.379657
-0.464751
0.413155
0.839367
0.865636
-0.667168
0.926598
-0.874221
0.912457
0.178925
-1.005694
-0.145807
0.265593
-0.471840
0.818957
-0.478037
0.318576
-0.661304
0.139215
-0.109942
-0.109125
-0.227102
0.695669
0.287300
0.653882
-0.850060
-0.436627
0.966673
0.129106
-0.824330
-0.732683
-0.491237
-0.289081
0.680472
-0.651870
-0.423445
-0.986696
-0.736190
-0.341963
0.861116
0.398377
-0.318184
-0.211926
-0.227829
0.286576
-0.339427
0.369534
-0.310171
0.047548
-0.481362
0.597470
0.970265
0.325108
0.298478
0.273232
-0.021009
0.448418
0.836605
-0.054337
-0.422476
-0.987725
0.212980
0.086288
-0.276811
-0.121501
0.390116
0.226745
-0.150517
0.654470
-1.023302
-0.189965
0.126796
-0.319758
0.616659
0.973824
-0.961827
-0.682693
0.332448
-0.257858
0.388864
0.891627
-0.644721
0.374796
0.216735
0.653757
-0.351972
-0.804274
0.102175
-0.515366
0.141384
0.679694
-0.503358
-0.674408
-0.291556
0.154359
0.199418
-0.829644
-0.498563
-0.867905
0.865308
-0.508318
-0.028776
0.071872
0.233090
-0.382130
0.042296
0.290324
-0.032981
-0.586699
-0.951868
-0.636283
-0.695073
-0.596589
0.738513
0.521662
-0.942832
-0.613464
0.717388
0.159338
-0.135419
-0.185227
-0.238860
0.310698
0.165500
0.604510
-0.430229
-0.558232
0.772308
0.081152
-0.406363
0.706149
0.616416
0.586718
-0.219106
-0.131315
-0.763565
0.852794
-0.825324
0.203454
-0.733906
-0.777192
0.567171
-0.428978
-0.373781
0.305679
-0.907316
-0.316618
0.663467
0.731130
0.764231
-0.491275
-0.345868
-0.327106
0.914267
0.853481
-0.754682
-0.513488
-0.681990
-0.913316
0.624481
-0.065396
0.799386
0.257694
-0.438844
-0.397079
-0.865788
-0.202409
-0.544286
-0.691112
-0.998955
-0.278191
-0.468304
0.568211
0.292830
0.144086
-0.184119
0.309258
0.762803
-0.459044
0.180435
0.671872
0.109025
0.840471
-0.678961
0.010218
0.707128
-0.346364
0.565792
-0.925558
-0.262990
0.208398
0.047909
-0.447927
-0.533903
0.609065
0.154994
-0.399691
-0.593344
0.610708
-0.090803
-0.592304
-0.667483
0.418723
0.896377
0.549090
-0.464890
-0.163900
0.000942
-0.576080
0.405518
-0.815274
-0.912106
-0.509409
-0.969460
-0.509015
0.583756
0.791426
0.142559
0.187167
0.906715
0.887413
-0.604425
-0.045376
-0.560514
-0.138328
-0.436310
0.594480
0.461981
-0.029654
0.190851
-0.671893
0.304835
0.461448
0.780577
0.331178
0.155218
-0.596952
-0.804559
-0.839450
-0.191587
0.571118
-0.655917
-0.048109
-0.848580
-0.571363
0.465088
0.771676
-0.731437
-0.392342
-0.041147
-0.824722
-0.504930
0.354429
0.129903
-0.065444
-0.783899
0.679261
-0.507061
0.622448
-0.394380
0.708402
-0.968852
-0.972442
0.257501
0.852608
0.381134
-0.590983
-0.770479
0.551124
-0.417205
0.092119
0.190596
-0.007467
-0.901659
0.384648
0.440501
0.563440
0.156334
0.709064
-0.828902
-0.884813
0.884342
-0.333832
0.469616
-0.000087
0.564029
0.627403
-0.350477
-0.922578
0.316010
0.321344
0.811311
0.368218
0.369069
0.087155
0.232018
-0.241139
0.513443
0.490386
-0.633874
-0.845197
-0.336184
0.622908
0.169044
-0.231841
0.013553
-0.390455
-0.668401
-0.830113
-0.681391
-0.497303
-0.714926
-0.811380
0.128098
0.696377
0.158882
-0.282005
0.399848
0.877124
-0.148559
-0.235869
0.256733
-0.276740
-0.822865
-0.344495
0.846026
0.437029
0.484082
0.441958
0.032267
0.923734
0.649935
0.708076
0.558625
-0.181021
-0.523764
-0.427822
0.428524
-0.192165
-0.257935
0.732801
0.290568
-0.016732
0.906213
-0.557749
-0.248348
0.133818
0.223359
-0.803390
0.066685
-0.884216
-0.038950
-0.657140
-0.117415
0.205772
0.075100
-0.203409
-0.270624
-0.386016
-0.718931
0.773631
-0.450299
0.931003
0.481708
-0.891674
-0.250017
0.957943
-0.319496
-0.821494
-0.227954
0.395967
0.899037
-0.938497
-0.554846
0.871173
-0.444293
0.231539
0.024267
0.761938
0.413424
-0.922672
0.915175
-0.522493
-0.483798
-0.135297
0.723930
0.624129
0.675626
-0.540703
-0.755897
0.956694
-0.767071
-0.206196
0.887698
0.714636
-0.097870
-0.362320
0.670494
0.556037
-0.210410
-0.584803
0.000654
-0.262729
-0.496215
0.451863
-0.401675
0.045630
-0.361581
0.614443
-0.151485
-0.865764
0.787630
-0.171901
-0.379553
-0.679699
0.692802
-0.655623
0.944430
0.368428
-0.196326
-0.811467
0.325123
0.036603
-0.017663
0.212821
-0.248761
0.867580
0.813576
-0.608294
0.444581
-0.355832
-0.157060
-0.546932
0.380676
0.355243
0.883735
-1.022372
-0.574259
-0.392323
0.678378
0.322288
-0.246104
0.482478
-0.849612
0.374344
0.802779
0.843190
0.718721
0.747208
0.211618
-0.477605
0.935741
-0.463259
0.558998
-0.081922
0.726346
-0.735259
-0.229623
0.577394
-0.282339
-0.740534
-0.757178
0.565074
-0.296507
0.645164
-0.042493
-0.330831
0.699083
0.420297
0.282838
0.387939
-0.257415
-0.963266
-0.129583
-0.107027
0.411078
-0.326804
-0.263838
0.129798
-0.579596
0.947781
0.652193
-0.643855
-0.521955
0.194113
0.242343
-0.781506
0.505840
-0.938820
0.825786
-0.744516
-0.653585
-0.899105
0.851717
0.088366
0.773916
-0.175207
0.757535
0.477486
-0.754910
0.040372
-0.134575
-0.012325
0.077106
0.735842
0.880648
-0.511816
-0.590962
-0.383190
0.617982
-0.170558
-0.435558
0.270027
0.183082
0.048963
-0.518634
-0.540190
0.283194
-0.997205
-0.463422
0.117339
-0.741721
-0.119250
0.218234
-0.890005
0.971359
-0.005607
-0.065211
0.728894
-0.528122
0.179879
-0.230734
0.337303
-0.832446
0.846372
0.073145
-0.951799
-0.665444
0.482183
-0.334989
0.952538
-0.688376
0.227359
0.220469
0.497211
-0.721286
0.704079
0.957021
0.559664
0.704630
-0.506401
-0.320754
0.965153
0.376592
0.897480
-0.924852
0.347951
-0.108128
0.009937
0.076845
0.363751
-0.810184
0.846111
-0.298946
-0.642631
0.692483
0.774198
-0.594429
-0.972962
0.256381
0.070582
0.977333
0.565762
-0.702059
0.200045
0.062973
-0.421103
-0.093633
0.022237
-0.859195
-0.386759
0.515837
-0.179949
-0.421606
-0.107571
-0.282469
-0.346458
-10.834061
784
0.609404
0.663478
0.317225
-0.026846
0.853294
0.163336
0.674208
-0.789337
-0.144182
0.448406
-0.383766
-0.117144
-0.295213
0.686816
-0.137568
-0.727208
0.987000
-0.935280
0.338009
-0.434102
-0.028912
-0.639754
-0.293297
0.584329
0.876083
0.526754
-0.837277
-0.231488
-0.755715
-0.183736
0.008892
0.853689
-0.520258
-0.673883
-0.173157
-0.666964
0.489453
-0.498949
-0.456300
-0.654729
0.949457
0.159934
0.228127
-0.345756
-0.153250
-0.909441
-0.072964
-0.166250
-0.844720
-0.734955
0.399647
0.126368
-0.374709
-0.893650
-0.289303
-0.498626
0.633104
-0.126581
0.269886
0.877389
0.689683
-0.721222
0.731078
-0.830574
-0.395104
-0.442079
-0.497538
-0.905652
0.058972
0.046162
-0.561826
0.006355
-0.793905
0.637051
0.662672
0.052845
0.758305
-0.410291
0.886595
0.913585
-0.145246
0.286243
0.039953
0.480045
0.392593
0.750649
0.981418
0.025696
-0.375932
0.251304
-0.096914
-0.686248
0.530105
-1.564922
-0.510395
-0.856291
0.341999
0.168796
-0.764550
-1.311647
-1.656913
-1.395640
0.160155
-0.800510
-0.680046
-0.076413
0.288940
-0.905005
0.511866
0.177337
-0.991417
-0.633380
-0.536420
0.048536
0.846664
0.856172
-0.200815
0.828915
-0.136363
-0.328453
-0.688790
-0.577094
0.614829
-0.038719
-0.850990
-1.530361
-0.482732
0.157595
0.251933
-0.490722
1.182051
-1.065165
-0.330755
-0.835678
0.826093
0.828823
-0.956099
-0.233738
-0.925590
0.555768
0.943599
-0.917007
0.922387
-0.592828
0.953471
1.398417
0.404874
1.970210
1.453173
0.749853
-0.085697
-2.234817
-0.525100
-0.384494
-1.961885
-0.977781
-0.555929
-0.172124
1.229201
0.341893
0.671580
-0.543079
1.344735
-0.408799
0.824680
0.205352
-0.373652
0.988399
0.996381
-0.299242
0.544166
0.939974
0.440263
0.109660
-1.001565
1.379054
-0.670665
1.983624
4.308428
4.627068
2.671688
-0.169742
-0.502621
-3.135274
-3.394859
-0.271056
-0.242273
-0.677494
-0.458480
3.468186
-0.722282
1.387688
1.597248
0.873664
-0.523161
0.762937
0.104456
0.103187
0.734990
0.083814
0.843476
-1.745614
-0.860078
0.990965
2.352260
2.603933
1.100938
3.772384
2.416554
0.438491
1.245718
-1.421242
1.337965
-0.894480
1.226628
2.434347
2.211565
-0.675052
0.464560
0.875269
0.515575
0.205810
0.789829
0.288759
0.435355
-0.732657
0.035351
0.262756
1.399262
-1.093442
1.345141
2.313160
1.595672
2.502179
1.761638
2.485865
1.150291
-0.935831
0.036002
-1.228528
4.435818
-0.767282
0.818153
2.735525
0.977463
1.607245
0.303658
0.212568
-0.390854
0.682630
0.123136
-0.798176
0.006566
-0.085686
0.474239
0.164867
0.302397
-0.657560
1.672256
0.849637
1.790008
1.439763
1.654907
0.394650
0.959097
0.780238
-1.003820
0.663291
0.056121
1.773508
2.428796
2.551661
1.148574
2.333188
0.010251
0.385384
-0.897823
-0.790471
-0.957842
-0.767775
0.979636
0.166643
-0.565951
0.165231
-0.925916
2.261811
2.011880
1.472300
1.079621
0.154422
0.526903
0.562372
-2.476289
0.387701
-1.851732
0.533279
1.216272
2.088367
0.983422
1.914378
1.995746
3.037481
2.871100
0.520442
-1.537018
0.329034
-0.546560
0.852120
-0.781672
-0.503052
-0.915655
-0.803381
0.589516
1.402207
0.000795
1.872671
0.669806
2.582286
1.121242
-1.927688
-1.696689
1.287490
-1.589958
-0.289313
1.935846
1.604607
2.263242
1.958077
1.444107
1.126843
0.913374
1.459665
-0.829154
-0.024113
0.836394
0.492223
0.014661
-0.709491
0.344344
0.231644
-0.201637
1.520407
2.054647
1.430695
3.420380
-0.638164
-1.068163
-0.023186
-3.783102
-2.213020
0.499635
2.955246
-2.347960
-0.530774
-2.228563
1.015093
1.294888
1.319321
2.364255
2.095212
-0.753021
0.605360
0.801076
0.787821
0.290987
0.637470
0.280045
-0.695697
0.507835
-0.366908
1.263805
0.756034
-4.651044
-0.389621
-1.003510
-0.737784
-3.192342
-4.280768
-1.201250
-0.348951
1.932608
-0.122235
-0.591455
-0.003728
3.568307
1.198961
0.787153
2.127603
0.837054
-0.594961
0.252159
-0.459052
-0.279861
0.053907
-0.670558
-0.989546
-1.241337
0.044337
-0.821851
-1.284015
-1.800537
-0.628986
-0.621492
-2.949439
-5.009623
-2.589501
-0.686683
-1.128529
-0.884083
0.461243
-1.288519
0.621859
-0.034178
-1.208523
-0.604844
0.113672
0.417518
0.639560
0.792557
0.371621
-0.245659
0.044716
0.912569
0.473807
-1.023322
-1.580793
0.525250
-0.495698
-1.500336
-1.902485
-2.293847
-1.063093
1.928753
-2.074062
-1.067323
0.158342
-1.050306
1.272219
-0.199439
0.378241
-1.324235
-1.521421
-0.362884
-0.915804
-0.938557
-0.805875
0.778723
0.704055
-0.455899
0.571954
0.075676
0.275316
-0.387684
-1.668532
-0.440231
-0.258815
-1.557627
-0.072310
0.168244
-1.863738
-0.366806
0.755197
0.816137
1.179901
-1.011037
0.940279
-0.898878
-0.658009
-1.564150
-0.967898
-0.012220
-0.872346
-0.475383
0.176613
0.220744
0.268636
-0.919519
0.000816
-0.027309
-0.520686
-0.744899
-2.249141
1.379728
1.678208
-0.301922
0.553885
-0.475331
-1.224448
-1.997770
1.447613
-1.033768
-0.723135
-0.297693
-1.034610
-1.506302
2.125530
-2.265504
-1.197389
-0.664688
-1.538915
-0.263424
-0.491489
0.751475
-0.075433
-0.605808
-0.026432
-0.806247
-0.697102
0.290855
-1.246943
-0.078168
-0.932142
0.298061
2.082299
0.802209
-0.285626
-1.275965
0.294794
-1.848896
-2.953661
-1.650663
-1.605722
-2.213340
-0.233774
-1.875557
-1.142813
1.566324
-0.802547
-0.896898
-1.154413
-0.356342
0.130456
0.063166
-0.603518
-0.960772
0.308555
-0.763408
-2.171573
0.452449
-1.186227
-1.540219
-0.307756
0.640113
1.838063
0.353659
1.834221
-0.424779
-0.790102
-3.407992
1.377163
-2.092603
-2.654480
-3.101221
-0.993104
1.172646
0.096191
-1.536039
-0.335817
-0.955542
0.740344
0.218838
-0.310535
-0.145545
-0.866250
-1.106769
-1.538739
-0.298599
-0.465320
-0.931053
1.163509
-1.176235
0.475590
1.295756
2.314115
-0.024387
-1.642463
-3.958007
-1.824900
-2.586038
-3.886049
-2.199904
-0.088876
0.981256
-0.748682
-0.568050
-0.765926
-0.617844
0.572425
0.607324
-0.572037
0.296425
-0.307415
-0.731169
-2.757276
-2.246808
-1.868703
-0.779873
1.074170
-1.660683
-0.999698
-1.136032
-0.436984
2.340712
0.100223
-0.825870
-1.367351
0.384692
-0.522832
-2.131373
-1.285322
-1.361981
0.301998
-0.236193
-0.388310
-0.573072
-0.447422
0.555506
-0.189567
-0.891342
0.184587
-0.597780
-1.485667
-0.695736
-0.778249
0.724510
1.104697
-0.766888
-2.449038
1.208400
1.407696
1.193691
0.453546
1.376125
-1.481549
-0.676237
-1.615335
-1.664319
-0.587907
-0.028900
-1.186083
-1.540951
0.008044
0.833401
0.640631
-0.669849
-0.738322
-0.806791
0.885651
-0.522196
-1.216328
-1.467146
-1.266479
2.951626
-0.961773
-1.477161
-0.125435
1.599315
0.025798
-0.062581
-0.814296
2.072245
0.628064
-1.429902
-3.254443
-1.542005
-1.721643
0.830824
-0.014877
0.891218
0.254860
0.139943
-0.940508
-0.381887
-0.025981
0.700123
-0.051737
0.188577
0.332277
0.696031
0.317733
0.871479
2.238100
0.141898
-0.417890
0.914453
1.033029
1.626378
0.907716
0.979460
-1.874163
-2.395962
-1.737749
-1.668371
0.100223
-0.398053
0.583197
0.904953
0.029395
-0.434806
0.796170
-0.715745
0.705137
0.855662
-0.097633
-0.320844
0.509129
0.934187
1.220114
1.880059
0.176269
1.661117
-1.378178
-1.355880
-1.492203
0.068349
0.927686
0.101647
0.168366
-0.679699
-1.107525
-1.048939
0.677689
0.590067
0.001136
0.352028
-0.333194
-0.415667
0.256981
0.696201
0.149527
0.053151
0.980456
-0.145336
-0.091187
-0.098331
0.314723
0.287041
1.972595
1.825958
3.615851
4.210173
1.531211
3.259288
-1.129168
1.674840
1.044239
0.876299
-0.181697
-0.644008
-0.986817
0.273724
-0.398408
0.688414
-0.136209
0.602728
0.040442
0.530597
-0.812939
-0.702578
0.226798
0.336589
0.350573
0.209183
-0.644441
-0.450921
0.079096
1.406924
1.568770
1.575542
-0.023046
-0.397761
-1.101586
0.236361
-0.142900
-0.773503
0.357390
0.414644
0.698305
0.995320
0.590263
0.711488
0.269044
-0.808145
0.399901
-5.081906
784
0.794583
-0.559657
0.663432
0.981645
-0.262235
-0.109770
0.318234
-0.911661
-0.902517
0.509487
-0.652275
-0.812441
0.234561
0.071709
0.011089
-0.591692
0.709407
0.252623
0.253389
0.921483
0.479119
-0.389221
0.336127
0.177424
-0.393901
-0.073610
-0.111088
0.875143
0.118245
-0.711186
-0.992021
-0.087171
-0.270843
0.671411
-0.105526
0.466922
-0.438359
-0.787293
0.555261
-0.340876
0.722194
0.902985
-0.153317
-0.043246
-0.025306
0.857771
0.365062
-0.315899
0.110394
-0.381549
-0.394416
-0.410487
0.229230
0.941711
0.766937
0.835329
-0.131899
-0.344150
0.710472
0.986346
-0.055337
0.718451
-0.100825
0.673820
0.389862
0.793649
0.140742
0.951503
-0.993644
-0.303997
-0.389374
0.728550
-0.401011
0.417365
-0.314695
0.573683
0.315080
-0.949633
-0.742216
-0.574526
-0.331182
-0.136632
0.014987
0.898048
-0.194921
-0.218076
0.733377
0.673180
0.437774
0.443849
0.659527
-0.617563
0.162300
-0.441298
-0.943743
-0.447822
-0.647634
0.152501
-0.489973
-0.672493
0.480320
0.024646
-0.930739
-0.509621
-0.427824
-0.227438
-0.934326
0.886681
-0.177072
-0.678301
-0.687846
0.491746
0.186827
0.327141
0.389794
0.991906
-0.890935
0.123171
0.665086
0.547263
-0.487377
0.621544
0.704949
1.089210
0.772677
1.116237
-0.120392
-0.792045
-0.578800
-0.749970
-1.107415
-0.206381
0.671673
-0.331525
0.565760
-0.530719
0.454191
0.633201
-0.642280
-0.722881
0.956659
-0.330126
0.768865
0.143486
0.997016
0.158660
0.398852
-1.099835
-0.778225
-0.361918
0.313363
-0.150036
-1.903409
1.360814
-0.512708
-0.367362
1.082703
-0.617813
-0.866170
-0.968996
0.017888
-0.308608
0.775422
0.544241
0.520071
0.393325
-0.984720
-0.025738
0.026526
-0.627000
0.251381
-0.016815
0.042874
0.015079
-0.688359
-0.158553
-0.337979
0.477095
-0.286855
-0.413596
-0.328577
-0.560543
-1.321511
-1.625709
-1.085437
0.428175
-0.900829
-0.337285
-0.642722
-0.810469
-0.414466
-0.607786
0.278543
-0.475123
0.936455
-0.201387
0.912127
0.951735
0.782335
-0.045813
-0.665836
-0.085485
1.202589
0.585410
-0.253905
-0.420304
0.102208
-0.622619
0.047184
1.334412
0.103779
-0.026995
0.655377
1.088384
0.741207
-1.040892
0.532922
0.751337
-0.448830
-0.228056
-0.797056
0.381344
0.021117
0.481488
1.140128
0.197553
-0.470458
1.062615
0.147470
-0.629716
0.454957
1.109655
0.671574
-0.279900
0.256947
0.126763
-0.631604
-0.047433
0.473734
-0.355302
-1.108102
-0.220438
-0.488281
0.183219
-1.236077
-0.421137
0.784018
1.067189
-0.222876
-0.669304
-0.466588
-0.019931
0.945947
0.576029
-0.507484
0.637973
-0.532917
-0.105040
0.838480
1.051732
-0.083952
-0.709684
-0.610777
-0.191218
0.675100
-0.456427
0.890565
1.950996
-1.126481
-0.440991
0.472992
0.590766
-0.908214
0.060082
0.690106
-0.610095
-0.809430
0.392292
-0.704440
-0.032307
0.956896
-0.149528
0.947762
0.435016
-0.616542
-0.645574
0.110526
0.047128
0.617623
-0.475287
-0.577521
-0.358238
-0.147369
-1.013249
-0.182715
1.033983
-0.502937
0.137739
0.638156
0.096217
-0.294054
-0.242322
-0.001008
0.517822
-0.817660
0.068567
0.908901
-0.627090
-0.305234
-0.774040
0.340603
-0.816152
0.033433
0.345568
0.566006
0.828648
1.022785
-0.846731
-1.236652
-1.335583
-0.035323
-1.647522
-0.713562
1.344650
1.195096
0.447728
1.001867
0.478679
0.056668
-0.623381
-0.975438
-0.537497
0.775921
0.652124
-0.909509
0.958261
-0.285383
1.020891
-0.668829
0.181551
-0.796148
0.449163
0.611746
0.646567
-0.380593
-0.303584
-0.570155
-1.317209
0.293712
-1.412353
0.486298
0.339190
0.748267
-1.052984
-1.106510
0.131390
-0.176781
-0.969093
0.023675
-0.643293
-0.036965
0.357343
-0.092039
-0.261044
0.003394
-0.001548
-0.302784
0.730159
0.025221
-0.282887
-0.217647
0.631856
-0.196906
-0.794569
-0.447363
-0.248241
-0.217674
-1.493951
-1.259063
1.461579
-0.669662
0.856775
0.688958
1.468492
-0.959574
-0.861213
-0.148457
0.037865
-0.363900
0.884536
0.373183
0.599135
0.235805
-0.724930
-0.667983
-0.754727
0.117458
-0.307136
0.817427
-0.280698
-0.798021
0.203757
0.681635
0.048213
-0.251631
0.988604
-0.323529
-0.546056
0.173160
-1.209925
-0.083152
1.125701
-0.583608
-0.380520
-0.523270
-0.425926
0.534879
0.582170
0.730114
-0.829021
0.466706
0.103297
0.770114
-0.291415
0.250911
-1.005596
0.046164
-0.264594
0.661269
0.873814
0.059956
1.200493
1.064530
0.266547
0.596725
-0.594500
-0.749249
-1.099282
0.533497
1.305387
0.490997
-0.633256
-0.665231
0.647269
0.759985
0.148890
-0.603360
0.413045
-0.268940
-0.873247
0.584025
-0.935681
0.096294
0.200357
-0.168541
-0.625833
0.831918
0.893207
0.480640
1.299338
0.665711
0.042480
0.258797
-0.769605
-1.040298
-0.226987
0.855155
1.113372
-0.758330
-0.345036
-0.773548
0.263376
0.744181
-0.249275
0.021228
0.748425
0.899615
0.417868
0.161470
-0.369325
0.623125
-0.171802
-0.011347
-0.710930
-0.949059
1.346303
0.476036
0.041611
-0.417925
-0.648024
0.106327
-0.624136
-0.915592
0.299763
-0.452110
1.415144
1.059824
-0.485660
-0.622820
0.808210
0.766590
-0.162951
0.261202
0.652818
0.587773
-0.717570
0.401244
0.566119
0.777978
-0.606422
-1.167947
0.081218
-0.558865
0.160948
-1.397123
0.798633
-0.010257
-0.113240
0.689713
-1.396645
-1.248812
-0.642582
-0.877872
0.264089
0.377315
0.205155
-0.794751
-0.165840
-0.575111
0.000097
-0.172068
-0.776583
0.837145
-0.910866
0.885695
0.503650
-0.665265
0.211860
-0.075505
-1.043350
0.475809
0.218674
0.308765
-0.193856
1.257519
1.934072
0.646510
-0.470865
0.066855
0.098650
0.659172
-0.263874
-0.323546
0.278954
0.763814
0.740933
0.374042
-0.721866
-0.334157
0.814903
0.278231
0.493775
-0.952221
0.194107
0.582909
0.865067
-0.800471
0.757845
-0.146112
0.276409
-1.233527
-0.679560
-0.997553
0.881077
-0.106830
-0.836638
0.305618
-0.012082
1.523365
-0.245533
-1.445093
-1.123502
-0.831780
-0.130553
0.690264
-0.968147
-0.291065
0.064307
-0.690012
0.374778
-0.111331
0.588219
-0.052716
-0.299098
-0.501710
-0.695501
-0.225233
-0.640382
-0.534627
-1.600797
-0.530022
-1.125253
-0.420774
0.252034
1.419692
1.870755
0.372577
-0.600719
0.672077
-0.320543
0.879606
-0.763274
-0.184126
-0.874374
0.163458
-0.493864
-0.842520
0.872393
0.579903
-0.523073
0.256630
-0.589753
-0.891704
-0.553993
0.032245
-0.759637
-1.150246
-1.069152
-0.744630
-0.391495
-1.259384
-0.351259
2.683714
1.236079
0.513657
-0.007585
-0.808156
0.491729
0.643695
-0.509506
-0.724254
0.515100
-0.272643
0.091620
0.640726
0.890815
0.597756
0.798206
0.763207
0.168560
-0.613646
0.258309
1.105710
-0.601965
-0.257332
-0.870789
-0.783853
0.379270
0.165628
0.048816
1.506838
0.006479
-0.531311
-0.720459
-0.309819
0.667204
0.252564
0.204130
0.181020
-0.111800
0.694693
0.456766
-0.596700
-0.577949
-0.451614
-0.955974
-0.687135
-0.853857
0.810907
-0.871948
0.421958
-0.775511
-0.147997
0.076816
0.004045
-0.392925
2.275053
-0.227958
1.969939
1.647379
-0.119525
0.273515
-0.490791
-0.622815
-0.355966
0.196642
-0.960222
0.896599
-0.599227
0.220797
-0.215202
-0.904533
-0.322437
0.188098
-0.482483
0.225949
0.232124
-0.169617
0.455427
0.134558
0.229963
-0.078557
0.235972
-0.786726
0.641562
0.024274
-0.511490
1.594548
0.516741
-0.751809
-0.362620
0.715145
-0.316470
0.146614
-0.907670
0.327564
-0.656744
-0.867892
0.224162
-0.255970
0.352905
-0.991039
-0.160504
-0.969532
0.197059
0.357019
0.257411
-0.563360
-0.812604
-0.368885
0.486595
0.076622
0.860799
-0.250142
0.043621
-0.138242
-0.674673
0.379829
-0.530582
0.418760
0.403501
0.106824
0.133905
-0.912969
-0.746562
0.226235
0.414595
-0.403306
0.358343
-0.361243
0.340723
-0.288752
-0.352282
-0.819780
-0.258283
0.844777
0.537234
0.998099
-0.726075
0.724294
-0.312027
0.777500
-0.282581
0.843366
-0.536698
0.905238
-0.124844
-0.239370
0.197449
0.344587
-0.820610
-0.399050
-0.548589
0.313295
-12.397656
784
-0.295152
-0.460469
-0.897424
0.301542
0.897874
-0.258667
-0.357734
-0.390877
0.389051
-0.177514
0.350839
0.233827
-0.640281
0.348973
0.507787
-0.915651
0.975615
0.285287
-0.097170
0.917200
0.748588
-0.191932
-0.207644
-0.490781
-0.994484
-0.863057
-0.311391
-0.393534
-0.411647
-0.998096
0.294447
0.293201
-0.458565
0.397023
-0.405256
-0.560691
-0.861644
0.237009
0.048432
0.527406
-0.940505
-0.600729
-0.238767
-0.580786
0.748244
-0.730980
-0.496437
0.723859
0.554307
0.406393
0.641059
0.302895
-0.785539
-0.566585
0.812114
-0.780023
-0.429643
-0.499277
-0.173557
0.158710
-0.497373
-0.879109
-0.548088
0.044062
0.517913
0.046655
0.483372
0.656269
-0.697224
-0.468197
0.183675
-0.656840
-0.068926
0.944908
-0.237627
-0.320682
-0.786071
0.265936
-0.596823
0.768235
-0.327671
-0.955764
0.071131
-0.113210
-0.522349
-0.116755
0.106767
0.048008
0.383968
0.933211
-0.793282
0.886595
-0.948735
-0.344207
-0.069343
0.591126
0.745822
-0.546309
0.246521
1.007187
-0.036462
-0.590878
-0.667890
0.876907
-0.643133
0.094483
-0.443775
-0.429204
-0.639581
-0.040598
-0.660969
0.032749
0.003639
0.410162
0.919539
0.481290
-0.706593
0.026306
-0.470702
0.638621
-0.076399
-0.301549
0.526826
-0.004002
0.371462
-0.470085
-0.352302
-0.231045
-0.316180
0.572924
-0.018577
0.885640
-0.782967
0.420552
0.731395
-0.417257
-0.484526
-0.712380
0.153539
-0.124107
0.247022
0.492570
0.908642
-0.749339
-0.097268
0.853590
0.677390
0.384737
0.013085
-0.733886
-0.495231
1.309442
0.632380
-0.015726
-0.204493
-0.523954
-0.536162
-0.034401
0.111472
0.793206
0.196139
-0.606881
0.647836
0.453092
-1.003969
0.420964
-0.964208
-0.482813
0.714267
0.189330
0.393080
-0.038711
-0.227267
0.312657
0.219517
0.830147
-0.080314
-0.049202
-0.379434
0.980281
-0.020439
1.406084
1.840667
-0.863388
-1.484349
-0.729568
-0.218455
0.079969
-0.829402
-0.958807
-0.306205
0.260807
-0.338794
-0.440109
-0.280506
-0.331397
0.986538
-0.244714
0.185790
0.699550
1.034193
-0.418575
-0.450384
-0.265110
0.790985
0.602953
-0.456677
0.726808
0.140992
0.951912
0.484331
0.071047
-1.007551
0.061865
-0.503292
-0.107771
1.284386
-0.208972
0.530412
0.444410
-0.094000
-0.373516
-0.274985
0.572889
0.186375
0.444509
-0.758508
0.171658
-0.711334
0.431092
-0.148578
-1.173211
-1.021540
0.335192
0.214073
0.472624
-0.013411
-0.600839
-1.353995
-0.674347
1.359302
0.902145
-0.345205
0.544347
0.384568
-0.542323
0.220057
-1.024769
0.296242
0.120018
0.563273
-0.797758
0.746502
-0.711711
0.775131
-0.068379
0.732798
-1.067041
-0.977386
0.608272
0.477520
0.153065
-0.125660
-0.020957
-1.240755
-1.299172
-1.360812
0.688695
1.664830
-0.042377
-0.363037
1.031986
-0.979824
-0.532472
-0.749129
-0.317897
-0.119708
0.782385
-0.083720
-0.823466
-0.097597
-0.520447
-0.621224
-0.352351
-0.232158
-0.927795
0.394603
-0.824157
-0.966400
0.536086
-1.422173
-0.024435
-0.447102
-1.180326
-1.997744
0.800632
1.322357
-1.066278
-0.073116
0.501092
-0.383243
0.361371
-0.185724
-0.278986
0.664457
0.416402
0.573079
-0.455251
0.198787
-0.510641
-0.278717
-0.900065
-0.031088
0.018357
-0.480104
0.342466
0.166060
-1.055373
-1.118607
0.090726
-1.654117
-0.987714
-0.645813
1.229732
1.074481
0.052198
1.027486
-0.571523
-0.477168
-0.062185
0.602586
0.136688
-0.762902
-0.280592
0.901549
0.901555
-0.864189
0.474628
-0.553696
0.333342
0.963987
0.084803
0.204037
-0.406534
-1.136703
-1.231273
-0.642272
0.323644
-1.028945
-0.178279
-0.222408
0.812805
-0.049953
1.285672
0.254431
-0.416800
-0.950287
0.094113
0.173875
-0.410186
-0.930789
0.024795
0.733218
-0.693691
0.744203
0.634768
-0.792136
0.878758
0.107842
-0.428616
-0.023195
-0.194985
0.346234
-0.195173
-0.733960
-1.062920
0.401367
0.546750
0.678769
-0.421976
-1.313185
-0.503372
0.151771
0.065396
-0.616960
-0.001899
0.839360
-0.368539
-0.792313
0.216778
0.223797
-0.723102
-0.758428
-0.042984
-0.416793
0.984520
-0.411027
-0.293073
0.735969
0.544221
0.039266
0.562121
0.368035
0.528978
1.595037
0.118408
1.691896
-2.746670
-1.214998
-0.317552
0.038513
-0.031806
0.534129
0.841421
-0.882676
-0.933255
-0.072611
-0.880372
-0.302674
0.135077
0.336406
0.921124
0.411975
0.577978
-0.121861
0.910009
0.490351
0.285505
-0.444435
0.557684
0.372357
-0.153396
-0.015603
2.397850
0.852447
-1.309103
-0.990005
-1.048885
-1.108083
-1.119717
0.887850
-0.284741
0.118639
0.341004
-0.458656
0.423486
0.413530
0.468733
0.543114
-0.889143
-0.396190
-0.120481
-0.968020
-0.992146
-0.548059
-0.137771
-1.149860
-1.407035
-1.004985
-0.043233
2.429187
1.312695
-0.172447
0.961634
1.261917
-0.549837
-1.422349
-1.226505
0.361808
0.262063
-0.693222
0.198522
0.738266
0.629667
-0.448801
-0.720390
0.053153
0.964729
0.748343
-0.403734
-0.924414
-0.655777
0.481147
-0.892386
-0.755586
0.700553
-0.929862
-0.308209
1.472791
1.592994
-0.052823
0.442035
-0.214554
-0.028712
0.230814
-0.947021
-0.357903
0.737796
-0.452016
-0.957988
-0.423147
0.075604
0.318478
-0.684881
-0.294729
0.869677
-0.405271
0.758423
0.829833
-0.657214
-0.656689
0.923484
-0.376934
0.404975
-1.493145
-1.149421
0.787865
0.171627
0.555658
1.812184
0.065128
0.177990
0.163825
0.310783
-0.252432
-0.297658
0.636381
0.482951
-0.942775
-0.503485
0.669169
-0.365922
0.572119
-0.012353
-0.050804
-0.723866
-0.138359
0.588640
-1.042843
-0.371603
0.682211
-0.958240
-0.567730
-1.090401
-1.798173
-1.243496
0.384235
2.030889
0.537588
0.469151
0.790050
-0.970599
0.611065
0.045993
0.277587
-0.543427
0.316313
0.296851
-0.916257
0.373552
0.793366
0.752912
-0.992370
0.364230
-0.236194
0.031399
1.052145
0.888324
-0.593971
0.347639
-1.025106
-1.094951
-1.961896
-0.773210
-0.146573
0.741899
0.920686
-0.181938
-0.758565
0.094778
0.610872
1.263144
0.127126
0.402610
-0.195421
-0.278047
0.937153
-0.879094
-0.981195
-0.979103
0.494458
0.810915
0.863901
0.565899
0.346118
-0.208151
-0.694469
-0.409044
-1.073135
-0.363436
-1.331384
-1.425083
0.953718
1.385849
0.287725
-0.422067
0.011031
-0.215050
0.221443
0.413183
0.841703
-0.370263
0.111423
0.221559
-0.955967
0.916003
0.943512
0.981186
-0.963091
0.961095
-0.987914
0.592455
0.665604
1.253212
0.409650
-0.170320
-0.714629
0.736632
0.558662
-0.475343
-0.188914
-0.002945
-1.117540
0.768273
-0.188593
-0.666959
-0.608305
0.631267
-0.185692
0.041096
-0.167618
-0.129688
0.685136
0.943806
-0.908129
0.729168
0.859808
-0.964583
0.739015
0.930978
0.929092
0.497853
0.844819
1.036561
0.640375
-0.184007
0.231633
-0.644328
0.165852
-1.192889
-1.918198
-0.795107
-0.185507
0.095585
-0.860555
0.593359
0.003562
-0.681151
0.308106
0.984418
0.371781
-0.859512
-0.145270
0.056916
-0.915706
-0.053399
-0.213915
1.007664
-0.011280
-0.506698
0.836577
0.214971
-0.231738
0.196876
-0.219101
0.662418
1.561384
-0.645676
-0.083347
0.567560
0.615140
0.509992
-1.115429
-0.256890
-0.357633
-0.704345
-0.648674
0.725410
-0.382137
0.659432
0.709828
0.989644
0.799920
-0.435442
0.046560
0.884214
0.511159
0.790225
0.857817
-0.513273
-0.714281
-0.372639
1.854599
0.664766
-0.931721
-1.337995
-0.860674
-0.332687
0.699735
0.709794
-0.647181
0.674108
0.367851
-0.556904
-0.583779
-0.989782
-0.261249
-0.232453
0.735628
0.356614
-0.573021
0.445456
0.346258
-0.773101
-0.989985
-0.786200
-0.888886
0.521174
-0.775582
2.288032
-0.990793
-0.507413
0.608516
0.487144
0.092506
-0.453396
0.711762
0.327670
0.215081
0.412741
0.038628
0.567900
0.086850
-0.593520
-0.989004
0.503071
-0.583302
-0.250253
-0.729382
-0.847674
-0.893639
-0.302403
0.597783
0.452619
-0.075504
0.607797
0.844982
0.034902
0.128794
-0.929101
-0.024960
0.143289
-0.374555
-0.416394
-0.369567
0.717950
0.130210
-0.657725
0.045621
-0.654708
0.755016
-0.915751
0.913192
-0.158134
-23.633101
784
0.924188
-0.655064
-0.092573
-0.326065
-0.384446
0.059753
-0.219704
0.313151
-0.342464
-0.767085
-0.762353
-0.734667
-0.921648
0.273257
0.394304
-0.850749
-0.751703
-0.462407
-0.225304
-0.168097
0.168026
-0.507354
0.962113
0.510300
0.538267
-0.692595
0.265316
0.622516
-0.779403
-0.892818
-0.886755
-0.855216
-0.547881
0.020671
-0.181281
0.067673
-0.919576
0.599016
-0.619176
-0.262040
0.831931
-0.381529
0.003293
0.910283
0.891728
-0.602403
-0.940466
-0.859975
-0.064810
-0.165770
-0.028072
-0.896785
0.326876
-0.065959
0.613516
-0.134857
0.241446
-0.121168
-0.512341
0.462043
-0.013985
-0.399097
0.606827
0.438133
0.621574
-0.574454
-0.494194
0.725639
-0.951797
-0.116885
-0.540845
0.873778
0.481940
0.407611
0.766776
0.396829
0.840847
0.826155
0.536854
-0.223963
-0.339460
-0.491219
-0.120747
0.987415
0.442822
-0.507232
-0.147442
-0.315732
0.371601
0.340217
-0.853689
-0.642385
1.504155
0.641304
0.814439
-0.089562
-1.250456
-1.333089
0.621349
-1.531031
-1.955617
-2.131564
-3.498440
-2.375448
-0.747223
0.158028
-0.929854
-0.011237
0.652824
0.618927
0.764786
-0.686636
-0.864250
-0.355961
-0.699221
0.578572
0.136807
0.313100
-0.682712
0.869146
0.491724
0.112586
0.074801
-0.912698
2.704586
1.716380
2.144393
3.229396
1.041689
-1.659240
-0.745063
-3.471700
-0.834599
0.538386
0.696593
-2.803528
-0.569528
-0.065089
0.103363
-0.916703
-0.438121
-0.131851
-0.603339
-0.302165
-0.143692
-1.040781
-0.746418
-2.326268
-2.947537
-2.414894
0.437151
2.410322
2.289241
2.935737
1.479303
3.653111
0.808687
0.311407
0.194442
0.287213
-1.719854
0.679410
0.143583
-2.535842
-0.520438
-0.355171
0.119763
0.030104
0.579740
-0.776874
0.113401
-0.856832
-0.350192
-0.233813
-0.020249
-1.446559
-3.934676
-1.658476
-1.272815
-0.037690
1.834760
-0.078802
2.070864
3.609389
1.110772
-0.920619
1.868579
-0.182143
-0.778144
-1.386538
0.377168
0.246063
0.161230
-0.432962
0.001580
0.759925
0.247008
-0.889339
-0.770958
-0.405984
-1.336865
0.985827
1.498558
0.775199
2.574695
-3.157226
-1.579139
-2.877878
0.586545
1.065888
3.957485
-1.237398
2.693462
1.426417
0.295746
0.935247
2.219481
1.284735
-1.811265
-0.004200
-1.121284
-0.738341
0.204843
0.183174
-0.377526
-0.791173
-0.617887
1.147785
-0.957391
1.972972
0.580510
0.090961
1.277397
-2.135661
-1.615277
0.331477
1.795857
-5.199632
0.285882
-1.641570
-0.876201
1.874068
2.162086
0.265023
-0.274235
1.261253
0.099683
0.741100
0.301066
-0.209412
-0.095883
-0.246913
-0.403007
-0.875551
0.375274
0.497769
0.536728
0.545699
1.432867
-0.747000
-1.313290
-0.444991
1.973887
0.348414
1.570030
0.594014
-5.337856
0.608272
-1.081502
2.027051
0.517459
-1.042866
1.547692
2.803726
1.871825
-0.823341
0.159358
0.808282
-0.564719
0.873170
-0.867488
0.354886
-0.373744
0.010885
1.416081
0.557606
2.372947
0.428521
-0.405982
0.693806
-0.356739
-0.067127
-0.322222
-3.454522
-6.679985
0.402336
0.874917
2.663071
-0.376256
2.540600
2.661268
1.146362
1.375022
1.192380
0.245580
-0.268239
-0.367304
-0.322895
-0.931735
0.083466
-0.449725
-0.506035
0.759494
0.103969
0.113363
-2.129821
-0.055220
1.659216
0.197597
-1.702492
0.514570
0.125952
-5.193082
-1.789140
-0.010238
1.982810
3.797485
1.072875
2.581015
1.329352
2.764786
-1.108302
-0.558107
0.291644
-0.392994
-0.473673
0.549645
0.242106
0.203432
0.911099
0.841271
2.099111
-0.487614
1.125182
1.990214
0.098038
0.127078
0.433609
0.809328
-1.221188
-4.264764
-0.322506
-0.552031
1.596303
1.669867
1.480741
2.754585
4.210245
4.030281
1.956484
0.169918
1.061267
-0.520670
-0.196850
-0.120848
0.075654
0.329478
-0.278014
0.623751
0.637185
-0.723279
2.984853
-1.025812
2.216451
-0.929543
-1.340218
-3.690197
-1.248546
-3.643111
-3.138351
-1.171982
1.868159
1.609590
3.407181
3.207455
5.722659
2.844445
2.209191
0.500080
-0.726527
0.211523
-0.496387
0.860981
0.715311
0.331222
0.057499
0.785157
-0.411677
-0.874028
2.204156
5.494095
3.713237
2.642646
1.665569
-1.878728
0.182602
-1.122024
-2.334554
-1.459453
1.176319
3.470183
3.992441
2.779619
2.581192
-2.380161
1.147592
0.170608
0.470458
-0.436943
0.531332
0.248117
0.774580
-0.965055
0.073958
0.128879
1.172100
-1.386077
0.700065
4.009826
2.448047
3.340869
2.598345
0.681562
0.777196
2.423753
-1.708922
-0.029486
0.711226
1.588122
2.911312
-1.668091
-1.837975
1.371998
-1.513815
-1.277604
-0.160478
0.233263
-0.448047
0.827252
0.809406
-0.916715
-0.059810
0.025182
0.128714
-3.073760
0.012534
1.083386
1.659770
-0.670219
-0.706036
1.948418
1.024271
-0.040626
-1.568137
2.220055
1.221212
0.167055
-1.390893
-2.208297
-2.519970
0.094149
-2.667689
-2.381392
-0.056946
-0.586120
0.592444
0.286762
0.673314
-0.855603
0.021353
0.584641
-1.908542
-2.126816
-1.850422
-0.827861
-1.259218
-2.475609
1.697957
-0.080162
-1.712103
-1.046976
2.395214
0.647894
-0.314622
-0.886980
-3.631016
-0.897700
-3.498101
-3.482836
-2.032947
-1.067591
-0.325573
0.764428
0.139653
0.108582
-0.795521
-0.267904
-1.211853
1.941363
-0.050562
-1.360697
0.119360
-3.147278
-1.500978
-0.038255
-2.712911
0.798009
-2.173835
-5.074860
-2.077549
0.991053
-0.533940
-2.284126
0.743733
-2.122484
-1.501297
-0.981126
-0.006641
-1.936659
-0.723419
-0.188197
0.562752
-0.557891
-0.397598
-0.858262
0.299872
0.539864
-0.259799
-1.820958
1.980041
2.069325
-0.679422
-1.315876
-2.050567
1.043371
-0.443974
-2.873656
-0.309219
0.225210
-0.317250
-1.734041
-0.181076
-2.039473
-2.236909
-1.043006
-0.628098
-1.083979
0.114416
-0.718858
0.365262
-0.117902
0.119116
-0.632973
0.078833
1.070475
0.312896
-0.750648
-0.141830
-0.900047
0.728367
-0.318142
1.825821
-0.283714
0.168125
-2.357932
-0.249882
0.252662
-0.803010
1.809242
-1.781316
-1.568228
-2.720795
-0.428987
-1.033140
-1.354405
-0.053964
0.334568
0.773289
0.551553
0.641882
-0.422436
-0.247348
-0.596031
-2.333152
0.101399
-0.372581
-0.543525
-1.203892
-1.619206
-3.996473
-1.291821
-1.524674
-2.136452
-2.025419
-3.793640
-2.720853
-2.249920
-3.052334
-1.643013
-2.904259
0.231618
-1.472302
1.281731
0.914369
-0.251923
-0.424240
-0.635409
-0.891184
-1.211939
0.692708
0.005961
0.187355
-1.738822
-0.455875
-1.447030
-0.889962
-0.954694
0.385798
0.630729
0.160980
2.232190
0.659843
0.159178
-0.916716
0.202221
0.110917
-3.931822
-0.555938
1.156956
0.363325
0.328305
0.124952
-0.985318
-0.267446
-0.443408
-0.211070
0.308313
-0.079730
-0.506581
-2.088606
-1.683785
0.598830
-0.675064
-0.058678
-0.512697
-0.464907
2.238422
1.068908
1.807298
3.813089
1.152761
-1.959267
-0.975804
-2.061477
-1.157069
-1.062769
-1.186787
-0.523305
0.240290
0.024195
-0.141046
-0.894956
0.907782
-0.113279
-0.162403
-0.535625
0.073708
-1.188130
-0.100938
-1.259291
1.582202
-0.313949
-0.917655
0.531771
1.460946
4.154625
-1.785971
0.538484
1.643945
1.256063
-1.874301
-0.334003
0.808529
-0.497298
0.140000
0.675147
0.122618
0.184318
-0.130899
-0.639431
-0.791487
0.728055
-0.534387
-0.883705
-0.385223
0.134344
-0.626314
-0.706390
0.443710
2.141749
1.109966
-0.181884
0.091192
-4.442153
-2.118107
-0.010338
1.981837
1.484950
-0.726784
0.565588
0.753261
0.035104
0.699782
0.006573
-0.986888
-0.215834
-0.318280
0.135730
0.968484
0.550821
0.496299
-0.823003
0.278877
0.961912
-0.712997
0.852096
0.082427
-0.443192
-0.515699
-0.083029
-0.937591
-0.441086
-0.092442
0.511373
0.584831
-1.263977
-0.248243
0.705292
-0.996561
-0.067668
-0.394799
0.460863
0.976204
-0.695018
-0.532564
0.989316
0.089149
0.149157
0.125046
0.057633
-0.300022
-0.378655
0.234507
0.806952
-0.454214
0.411519
0.752834
0.396921
-0.870763
-0.961485
-0.466389
0.242074
-0.486843
-1.016280
-0.728623
-0.761930
-0.303480
-0.100197
0.839292
-0.288233
0.832135
-0.555507
-0.827370
0.808338
0.413705
784
-0.359934
0.797654
0.838624
0.789223
-0.077299
-0.103743
-0.510799
0.544046
-0.869112
-0.531945
-0.872697
0.658810
-0.659437
0.975683
-0.939306
-0.602848
-0.461694
0.302768
0.501648
0.067564
0.574146
0.739718
0.764084
-0.526051
0.579010
-0.524149
-0.693917
-0.976497
-0.351519
-0.885578
-0.227022
0.288547
0.912076
-0.388398
0.077770
-0.165223
0.507860
0.566971
-0.621177
0.638747
-0.964973
-0.493874
0.297557
-0.624410
-0.518191
0.358252
-0.227258
0.020115
-0.338980
-0.725610
-0.912321
-0.764834
-0.985893
0.851763
-0.290886
0.593117
-0.672385
0.015198
0.616620
-0.023904
0.129620
-0.610402
-0.735357
0.041696
0.001200
0.342414
0.876473
-0.923057
-0.522732
-0.934191
1.596696
-0.309260
0.026059
0.832388
0.320002
0.243231
-0.196384
-0.907256
-0.736654
0.464636
-0.632866
-0.648975
0.699802
-0.618759
-0.797212
-0.591083
0.974358
-0.469598
0.424114
0.590978
0.506498
-0.844535
0.740346
0.472064
0.009961
-1.141264
1.940901
2.897890
3.498169
1.402426
3.198879
2.812594
-0.185704
0.273756
0.260981
-0.710289
0.732764
0.887624
-0.619902
1.086413
0.352260
-0.252769
-0.653779
0.052062
0.128472
-0.450991
0.460979
0.097780
0.103545
-0.295177
1.187160
0.874037
-0.325789
-1.457240
2.521862
-1.724848
0.466113
1.677929
-0.605489
1.830562
0.358443
-1.356630
1.959938
1.670509
0.471539
2.882970
